{"learner":{"attributes":{"best_iteration":"999","best_ntree_limit":"1000","scikit_learn":"{\"n_estimators\": 1000, \"objective\": \"reg:squarederror\", \"max_depth\": 6, \"learning_rate\": 0.1, \"verbosity\": 0, \"booster\": \"gbtree\", \"tree_method\": \"gpu_hist\", \"gamma\": 250, \"min_child_weight\": 30.0, \"max_delta_step\": 0, \"subsample\": 0.6, \"colsample_bytree\": 1, \"colsample_bylevel\": 1, \"colsample_bynode\": 0.8, \"reg_alpha\": 70, \"reg_lambda\": 0, \"scale_pos_weight\": 1, \"base_score\": 0.5, \"missing\": NaN, \"num_parallel_tree\": 1, \"random_state\": 0, \"n_jobs\": -1, \"monotone_constraints\": \"()\", \"interaction_constraints\": \"\", \"importance_type\": null, \"gpu_id\": 0, \"validate_parameters\": 1, \"predictor\": \"auto\", \"enable_categorical\": false, \"_estimator_type\": \"regressor\"}"},"feature_names":[],"feature_types":[],"gradient_booster":{"model":{"gbtree_model_param":{"num_trees":"1000","size_leaf_vector":"0"},"tree_info":[0,0,0,0,0,0,0,0,0,0,0,0,0,0,0,0,0,0,0,0,0,0,0,0,0,0,0,0,0,0,0,0,0,0,0,0,0,0,0,0,0,0,0,0,0,0,0,0,0,0,0,0,0,0,0,0,0,0,0,0,0,0,0,0,0,0,0,0,0,0,0,0,0,0,0,0,0,0,0,0,0,0,0,0,0,0,0,0,0,0,0,0,0,0,0,0,0,0,0,0,0,0,0,0,0,0,0,0,0,0,0,0,0,0,0,0,0,0,0,0,0,0,0,0,0,0,0,0,0,0,0,0,0,0,0,0,0,0,0,0,0,0,0,0,0,0,0,0,0,0,0,0,0,0,0,0,0,0,0,0,0,0,0,0,0,0,0,0,0,0,0,0,0,0,0,0,0,0,0,0,0,0,0,0,0,0,0,0,0,0,0,0,0,0,0,0,0,0,0,0,0,0,0,0,0,0,0,0,0,0,0,0,0,0,0,0,0,0,0,0,0,0,0,0,0,0,0,0,0,0,0,0,0,0,0,0,0,0,0,0,0,0,0,0,0,0,0,0,0,0,0,0,0,0,0,0,0,0,0,0,0,0,0,0,0,0,0,0,0,0,0,0,0,0,0,0,0,0,0,0,0,0,0,0,0,0,0,0,0,0,0,0,0,0,0,0,0,0,0,0,0,0,0,0,0,0,0,0,0,0,0,0,0,0,0,0,0,0,0,0,0,0,0,0,0,0,0,0,0,0,0,0,0,0,0,0,0,0,0,0,0,0,0,0,0,0,0,0,0,0,0,0,0,0,0,0,0,0,0,0,0,0,0,0,0,0,0,0,0,0,0,0,0,0,0,0,0,0,0,0,0,0,0,0,0,0,0,0,0,0,0,0,0,0,0,0,0,0,0,0,0,0,0,0,0,0,0,0,0,0,0,0,0,0,0,0,0,0,0,0,0,0,0,0,0,0,0,0,0,0,0,0,0,0,0,0,0,0,0,0,0,0,0,0,0,0,0,0,0,0,0,0,0,0,0,0,0,0,0,0,0,0,0,0,0,0,0,0,0,0,0,0,0,0,0,0,0,0,0,0,0,0,0,0,0,0,0,0,0,0,0,0,0,0,0,0,0,0,0,0,0,0,0,0,0,0,0,0,0,0,0,0,0,0,0,0,0,0,0,0,0,0,0,0,0,0,0,0,0,0,0,0,0,0,0,0,0,0,0,0,0,0,0,0,0,0,0,0,0,0,0,0,0,0,0,0,0,0,0,0,0,0,0,0,0,0,0,0,0,0,0,0,0,0,0,0,0,0,0,0,0,0,0,0,0,0,0,0,0,0,0,0,0,0,0,0,0,0,0,0,0,0,0,0,0,0,0,0,0,0,0,0,0,0,0,0,0,0,0,0,0,0,0,0,0,0,0,0,0,0,0,0,0,0,0,0,0,0,0,0,0,0,0,0,0,0,0,0,0,0,0,0,0,0,0,0,0,0,0,0,0,0,0,0,0,0,0,0,0,0,0,0,0,0,0,0,0,0,0,0,0,0,0,0,0,0,0,0,0,0,0,0,0,0,0,0,0,0,0,0,0,0,0,0,0,0,0,0,0,0,0,0,0,0,0,0,0,0,0,0,0,0,0,0,0,0,0,0,0,0,0,0,0,0,0,0,0,0,0,0,0,0,0,0,0,0,0,0,0,0,0,0,0,0,0,0,0,0,0,0,0,0,0,0,0,0,0,0,0,0,0,0,0,0,0,0,0,0,0,0,0,0,0,0,0,0,0,0,0,0,0,0,0,0,0,0,0,0,0,0,0,0,0,0,0,0,0,0,0,0,0,0,0,0,0,0,0,0,0,0,0,0,0,0,0,0,0,0,0,0,0,0,0,0,0,0,0,0,0,0,0,0,0,0,0,0,0,0,0,0,0,0,0,0,0,0,0,0,0,0,0,0,0,0,0,0,0,0,0,0,0,0,0,0,0,0,0,0,0,0,0,0,0,0,0,0,0,0,0,0,0,0,0,0,0,0,0,0,0,0,0,0,0,0,0,0,0,0,0,0,0,0,0,0,0,0,0,0,0,0,0,0,0,0,0,0,0,0,0,0,0,0,0,0,0,0,0,0,0,0,0,0,0,0,0,0,0,0,0,0,0,0,0,0,0,0,0,0,0,0,0,0,0,0,0,0,0,0,0,0,0,0,0,0,0,0,0,0,0,0,0,0,0,0,0,0,0,0,0,0,0,0,0,0,0,0,0,0,0,0],"trees":[{"base_weights":[3.5521088E2,4.849133E2,2.7920724E2,7.633393E2,4.4505014E2,3.2468707E2,2.0821165E2,5.6880743E2,9.7925305E2,3.845675E2,4.891398E2,2.726909E2,3.549497E2,2.4305974E2,1.8358832E2,4.6927113E1,6.4773096E2,1.4533893E2,7.793687E2,4.8106253E2,3.3525848E2,6.3223627E2,4.599437E2,2.1669751E2,2.980851E2,2.4310068E2,3.713825E2,2.5187277E2,1.6792582E1,1.698815E2,2.1335712E2,5.2978283E1,7.483175E1,5.5046795E1,9.434672E1,3.769079E2,5.5904865E2,2.9564175E2,3.879962E2,8.133409E1,5.6634607E2,3.8888736E2,4.878822E2,2.804218E1,2.0545819E2,3.236407E2,2.636914E2,2.7809805E2,1.9138805E2,3.8865543E2,3.2606613E2,2.5936053E2,1.9751059E1,1.7652429E2,1.27391815E2,2.4134779E1,2.0103771E1,3.3367825E1,4.719871E1,4.7043877E1,6.1181274E1,2.276663E1,3.2360027E1,3.099437E1,4.3036095E1,6.1497578E1,5.0778244E1,2.8358244E1,4.1908764E1,4.4956593E1,5.293696E1,2.3675472E1,1.8793295E1,2.9967136E1,3.4680767E1,1.9635847E1,2.7611887E1,2.4514608E1,3.178517E1,1.6696865E1,2.1442621E1,4.0858986E1,3.454633E1,3.0883116E1,3.467904E1,2.8003859E1,2.3864473E1,1.877117E1,1.57861805E1,1.0392276E1,1.4654836E1],"categories":[],"categories_nodes":[],"categories_segments":[],"categories_sizes":[],"default_left":[true,true,true,false,true,true,true,true,true,true,true,false,false,false,true,false,true,false,true,false,false,true,true,true,true,true,true,false,false,true,true,false,false,false,false,true,false,false,true,false,true,true,true,false,true,false,true,true,true,true,true,true,false,true,true,false,false,false,false,false,false,false,false,false,false,false,false,false,false,false,false,false,false,false,false,false,false,false,false,false,false,false,false,false,false,false,false,false,false,false,false],"id":0,"left_children":[1,3,5,7,9,11,13,15,17,19,21,23,25,27,29,-1,31,-1,33,35,37,39,41,43,45,47,49,51,-1,53,55,-1,-1,-1,-1,57,59,61,63,-1,65,67,69,-1,71,73,75,77,79,81,83,85,-1,87,89,-1,-1,-1,-1,-1,-1,-1,-1,-1,-1,-1,-1,-1,-1,-1,-1,-1,-1,-1,-1,-1,-1,-1,-1,-1,-1,-1,-1,-1,-1,-1,-1,-1,-1,-1,-1],"loss_changes":[5.176928E7,2.1469568E7,1.06664E7,1.009816E7,4.469504E6,3.134624E6,1.081344E6,9.27348E5,1.0742536E7,3.3544E6,4.026208E6,1.021868E6,2.302272E6,3.2487E5,2.83282E5,0E0,7.52878E5,0E0,2.937968E6,1.900156E6,9.4456E5,1.884308E6,1.55856E6,1.32867E5,4.08032E5,2.63945E5,8.20384E5,1.6259E5,0E0,1.26061E5,5.1103E4,0E0,0E0,0E0,0E0,3.71069E5,5.69452E5,4.78346E5,6.19434E5,0E0,2.68856E5,6.85448E5,8.61424E5,0E0,7.942E4,1.16894E5,1.5018E5,8.76565E4,1.0995E4,6.39472E5,6.412E4,1.43176E5,0E0,6.9763E4,1.483725E4,0E0,0E0,0E0,0E0,0E0,0E0,0E0,0E0,0E0,0E0,0E0,0E0,0E0,0E0,0E0,0E0,0E0,0E0,0E0,0E0,0E0,0E0,0E0,0E0,0E0,0E0,0E0,0E0,0E0,0E0,0E0,0E0,0E0,0E0,0E0,0E0],"parents":[2147483647,0,0,1,1,2,2,3,3,4,4,5,5,6,6,7,7,8,8,9,9,10,10,11,11,12,12,13,13,14,14,16,16,18,18,19,19,20,20,21,21,22,22,23,23,24,24,25,25,26,26,27,27,29,29,30,30,35,35,36,36,37,37,38,38,40,40,41,41,42,42,44,44,45,45,46,46,47,47,48,48,49,49,50,50,51,51,53,53,54,54],"right_children":[2,4,6,8,10,12,14,16,18,20,22,24,26,28,30,-1,32,-1,34,36,38,40,42,44,46,48,50,52,-1,54,56,-1,-1,-1,-1,58,60,62,64,-1,66,68,70,-1,72,74,76,78,80,82,84,86,-1,88,90,-1,-1,-1,-1,-1,-1,-1,-1,-1,-1,-1,-1,-1,-1,-1,-1,-1,-1,-1,-1,-1,-1,-1,-1,-1,-1,-1,-1,-1,-1,-1,-1,-1,-1,-1,-1],"split_conditions":[5.835323E1,2.0659647E1,1.4642857E0,1.9090909E0,4.2078633E0,1.5384616E-1,1.09549774E2,2.1033082E0,1.5084233E1,2.898864E1,3.63451E1,2.9166666E-1,5.5454345E0,1.7E0,2.9166666E-1,4.6927113E1,8.9166665E-1,1.4533893E2,2.9294376E0,2.871639E0,3.5714287E-1,7.5E-1,2.5E-1,1.804E0,1.0285714E1,2.4166667E0,1.4E0,1.63E0,1.6792582E1,1.97E0,1.5192307E0,5.2978283E1,7.483175E1,5.5046795E1,9.434672E1,1.9090909E0,3.529412E-1,3.173294E0,1.8095238E0,8.133409E1,1.4571428E1,5.067956E0,3.0769232E-1,2.804218E1,3.8E1,1.21212125E-1,6.473515E0,2.5203252E-1,1.8095238E0,1.7272727E0,2.1052632E-1,1.5375E0,1.9751059E1,5.7E0,1.0817824E1,2.4134779E1,2.0103771E1,3.3367825E1,4.719871E1,4.7043877E1,6.1181274E1,2.276663E1,3.2360027E1,3.099437E1,4.3036095E1,6.1497578E1,5.0778244E1,2.8358244E1,4.1908764E1,4.4956593E1,5.293696E1,2.3675472E1,1.8793295E1,2.9967136E1,3.4680767E1,1.9635847E1,2.7611887E1,2.4514608E1,3.178517E1,1.6696865E1,2.1442621E1,4.0858986E1,3.454633E1,3.0883116E1,3.467904E1,2.8003859E1,2.3864473E1,1.877117E1,1.57861805E1,1.0392276E1,1.4654836E1],"split_indices":[105,105,111,114,0,118,105,0,105,105,105,1,0,111,1,0,111,0,0,0,118,110,118,113,106,115,111,112,0,113,111,0,0,0,0,114,118,0,114,0,109,0,1,0,109,118,0,118,114,115,118,111,0,107,0,0,0,0,0,0,0,0,0,0,0,0,0,0,0,0,0,0,0,0,0,0,0,0,0,0,0,0,0,0,0,0,0,0,0,0,0],"split_type":[0,0,0,0,0,0,0,0,0,0,0,0,0,0,0,0,0,0,0,0,0,0,0,0,0,0,0,0,0,0,0,0,0,0,0,0,0,0,0,0,0,0,0,0,0,0,0,0,0,0,0,0,0,0,0,0,0,0,0,0,0,0,0,0,0,0,0,0,0,0,0,0,0,0,0,0,0,0,0,0,0,0,0,0,0,0,0,0,0,0,0],"sum_hessian":[5.257E3,1.942E3,3.315E3,2.43E2,1.699E3,2.02E3,1.295E3,1.28E2,1.15E2,7.17E2,9.82E2,7.44E2,1.276E3,5.35E2,7.6E2,5.7E1,7.1E1,3.4E1,8.1E1,2.42E2,4.75E2,1.66E2,8.16E2,2.33E2,5.11E2,1.64E2,1.112E3,4.78E2,5.7E1,5.22E2,2.38E2,3.3E1,3.8E1,3.4E1,4.7E1,1.04E2,1.38E2,2.72E2,2.03E2,4.4E1,1.22E2,2.31E2,5.85E2,3.4E1,1.99E2,2.92E2,2.19E2,9.7E1,6.7E1,8.04E2,3.08E2,4.19E2,5.9E1,4.5E2,7.2E1,7.1E1,1.67E2,7.2E1,3.2E1,5.2E1,8.6E1,8E1,1.92E2,7.2E1,1.31E2,6.6E1,5.6E1,5.2E1,1.79E2,3.05E2,2.8E2,7E1,1.29E2,1.45E2,1.47E2,3.5E1,1.84E2,5.4E1,4.3E1,3.4E1,3.3E1,5.49E2,2.55E2,1.7E2,1.38E2,2.08E2,2.11E2,2.79E2,1.71E2,3.4E1,3.8E1],"tree_param":{"num_deleted":"0","num_feature":"129","num_nodes":"91","size_leaf_vector":"0"}},{"base_weights":[3.186987E2,4.8921323E2,2.7022885E2,4.5916562E2,8.7792615E2,3.244247E2,2.04301E2,7.459869E2,4.4207797E2,6.9108864E1,1.0461875E2,2.656893E2,3.5565256E2,2.3216972E2,1.6750624E2,8.697965E1,6.1571693E1,4.6327933E2,3.048375E2,3.0676147E2,2.2907845E2,2.5413333E2,3.8037527E2,2.4821268E2,1.624865E2,1.9450134E2,1.5006448E2,3.7078067E2,4.950311E2,2.8565967E2,3.5529587E1,2.4763926E1,3.1664316E2,1.8724417E2,2.5256332E2,2.9240613E2,1.7483653E2,4.140968E2,3.499895E2,2.0280891E2,2.613333E2,1.8037578E2,1.2699393E1,2.042398E2,1.404055E1,1.5660114E2,1.2178237E2,2.7811756E1,4.122398E1,6.619482E1,4.66941E1,3.0761627E1,2.4407133E1,3.0656727E1,3.9306667E1,2.1824465E1,1.5654241E1,2.1547771E1,2.8968054E1,3.2385845E1,2.6478033E1,1.3425954E1,1.9248747E1,4.471965E1,3.76736E1,3.0845175E1,3.7989155E1,2.1796482E1,1.3660687E1,2.7870396E1,2.387079E1,2.026293E1,1.4932193E1,2.1596245E1,1.8809843E1,1.7617245E1,1.4358812E1,1.3330935E1,1.003512E1],"categories":[],"categories_nodes":[],"categories_segments":[],"categories_sizes":[],"default_left":[true,false,true,true,false,false,false,true,false,false,false,false,true,true,false,false,false,true,false,false,true,false,true,true,true,false,true,false,true,true,false,false,true,true,true,true,true,false,true,false,true,true,false,true,false,true,true,false,false,false,false,false,false,false,false,false,false,false,false,false,false,false,false,false,false,false,false,false,false,false,false,false,false,false,false,false,false,false,false],"id":1,"left_children":[1,3,5,7,9,11,13,15,17,-1,-1,19,21,23,25,-1,-1,27,29,31,33,35,37,39,41,43,45,47,49,51,-1,-1,53,55,57,59,61,63,65,67,69,71,-1,73,-1,75,77,-1,-1,-1,-1,-1,-1,-1,-1,-1,-1,-1,-1,-1,-1,-1,-1,-1,-1,-1,-1,-1,-1,-1,-1,-1,-1,-1,-1,-1,-1,-1,-1],"loss_changes":[4.3758656E7,1.3606944E7,1.4712416E7,5.254128E6,2.519148E6,4.110928E6,1.882392E6,8.79864E5,2.937392E6,0E0,0E0,1.145896E6,3.66512E6,1.155136E6,3.54438E5,0E0,0E0,2.553328E6,8.8673E4,1.76664E5,3.78906E5,8.47418E5,1.163808E6,4.79836E5,1.048365E5,1.41294E5,7.11E4,8.2759E5,3.024912E6,5.36085E4,0E0,0E0,1.94358E5,1.17482E5,3.30792E5,1.2823E5,4.516875E4,6.37312E5,7.29344E5,1.6983E5,2.25532E5,6.5892E4,0E0,2.1859E4,0E0,7.8471E4,6.86525E3,0E0,0E0,0E0,0E0,0E0,0E0,0E0,0E0,0E0,0E0,0E0,0E0,0E0,0E0,0E0,0E0,0E0,0E0,0E0,0E0,0E0,0E0,0E0,0E0,0E0,0E0,0E0,0E0,0E0,0E0,0E0,0E0],"parents":[2147483647,0,0,1,1,2,2,3,3,4,4,5,5,6,6,7,7,8,8,11,11,12,12,13,13,14,14,17,17,18,18,19,19,20,20,21,21,22,22,23,23,24,24,25,25,26,26,27,27,28,28,29,29,32,32,33,33,34,34,35,35,36,36,37,37,38,38,39,39,40,40,41,41,43,43,45,45,46,46],"right_children":[2,4,6,8,10,12,14,16,18,-1,-1,20,22,24,26,-1,-1,28,30,32,34,36,38,40,42,44,46,48,50,52,-1,-1,54,56,58,60,62,64,66,68,70,72,-1,74,-1,76,78,-1,-1,-1,-1,-1,-1,-1,-1,-1,-1,-1,-1,-1,-1,-1,-1,-1,-1,-1,-1,-1,-1,-1,-1,-1,-1,-1,-1,-1,-1,-1,-1],"split_conditions":[4.317748E1,2E-1,1.415E0,7.142857E0,4.7058824E-1,1.75E-1,1.555E0,5E-1,1.55E0,6.9108864E1,1.0461875E2,1.0818182E1,5.2016883E0,1.0666667E1,1.1244085E2,8.697965E1,6.1571693E1,2.978737E0,3.8153057E0,8.888889E-2,6.6465735E0,2.7692308E0,2.7444445E1,1.2E-1,2.4E0,1.7428571E0,9.714286E0,3.7037036E-1,1.16E1,2.9E1,3.5529587E1,2.4763926E1,2.1066666E0,3.4333332E1,1.3636364E-1,5.122641E1,3.6538908E0,1.7272727E0,2.9166666E-1,3.5714287E-1,1.4833333E0,9.571428E0,1.2699393E1,7.5E0,1.404055E1,1.65E0,1.8785714E0,2.7811756E1,4.122398E1,6.619482E1,4.66941E1,3.0761627E1,2.4407133E1,3.0656727E1,3.9306667E1,2.1824465E1,1.5654241E1,2.1547771E1,2.8968054E1,3.2385845E1,2.6478033E1,1.3425954E1,1.9248747E1,4.471965E1,3.76736E1,3.0845175E1,3.7989155E1,2.1796482E1,1.3660687E1,2.7870396E1,2.387079E1,2.026293E1,1.4932193E1,2.1596245E1,1.8809843E1,1.7617245E1,1.4358812E1,1.3330935E1,1.003512E1],"split_indices":[105,6,111,109,118,118,111,110,110,0,0,106,0,106,105,0,0,0,0,118,0,115,109,118,115,111,106,118,109,108,0,0,113,109,118,105,0,115,1,80,111,116,0,106,0,111,113,0,0,0,0,0,0,0,0,0,0,0,0,0,0,0,0,0,0,0,0,0,0,0,0,0,0,0,0,0,0,0,0],"split_type":[0,0,0,0,0,0,0,0,0,0,0,0,0,0,0,0,0,0,0,0,0,0,0,0,0,0,0,0,0,0,0,0,0,0,0,0,0,0,0,0,0,0,0,0,0,0,0,0,0,0,0,0,0,0,0,0,0,0,0,0,0,0,0,0,0,0,0,0,0,0,0,0,0,0,0,0,0,0,0],"sum_hessian":[5.301E3,1.173E3,4.128E3,1.089E3,8.4E1,2.265E3,1.863E3,6.1E1,1.028E3,4E1,4.4E1,7.87E2,1.478E3,1.059E3,8.04E2,3.1E1,3E1,8.9E2,1.38E2,3.7E2,4.17E2,2.9E2,1.188E3,8.6E2,1.99E2,3.14E2,4.9E2,2.28E2,6.62E2,1.01E2,3.7E1,5.4E1,3.16E2,1.51E2,2.66E2,1.95E2,9.5E1,5.62E2,6.26E2,1.94E2,6.66E2,1.31E2,6.8E1,2.65E2,4.9E1,3.96E2,9.4E1,7.1E1,1.57E2,9.5E1,5.67E2,6.5E1,3.6E1,2.8E2,3.6E1,7.4E1,7.7E1,1.34E2,1.32E2,9E1,1.05E2,3E1,6.5E1,2.97E2,2.65E2,2.63E2,3.63E2,1.57E2,3.7E1,3.75E2,2.91E2,7.5E1,5.6E1,1.51E2,1.14E2,1.56E2,2.4E2,5.9E1,3.5E1],"tree_param":{"num_deleted":"0","num_feature":"129","num_nodes":"79","size_leaf_vector":"0"}},{"base_weights":[2.8845572E2,4.0174213E2,2.3049254E2,7.976232E2,3.8019604E2,2.7708926E2,1.7875705E2,4.6888542E1,1.2715859E2,3.066115E2,4.1459323E2,2.0493097E2,2.925903E2,2.0099701E2,1.4477155E2,2.2945407E2,3.4927734E2,4.3756012E2,2.6321347E2,2.4038585E2,1.4340523E2,2.5251497E2,3.270577E2,2.1202548E2,1.387656E2,1.5220396E2,1.1996076E2,2.6504724E2,1.6767682E2,3.984795E2,3.1857184E2,4.7858887E2,3.1222446E2,2.8084494E2,2.0556797E1,2.720755E2,2.00447E2,1.6975136E1,1.1545334E1,2.8152103E2,2.2664825E2,3.495481E2,2.9951532E2,1.9609885E2,2.4391269E2,1.665501E1,1.11152306E2,1.3890459E2,1.705922E2,1.2781206E1,9.921315E0,2.3136356E1,2.9307713E1,1.4267158E1,1.8820782E1,3.7505917E1,4.364257E1,3.3193428E1,2.41945E1,4.631689E1,6.794652E1,2.2302298E1,3.4126965E1,2.417848E1,3.2511887E1,2.430787E1,2.9841146E1,1.8430103E1,2.2768213E1,2.9116825E1,1.8559183E1,2.5167725E1,1.9855436E1,3.7069626E1,3.0963465E1,3.1347303E1,2.4273857E1,2.1288504E1,1.7148125E1,2.3725367E1,2.839501E1,1.2899759E1,8.183848E0,1.4725295E1,1.1794882E1,1.8062908E1,1.5518974E1],"categories":[],"categories_nodes":[],"categories_segments":[],"categories_sizes":[],"default_left":[true,false,true,true,true,true,false,false,false,true,true,true,true,true,false,false,true,true,true,true,true,true,true,true,false,true,false,true,true,true,true,true,true,true,false,false,true,false,false,true,true,true,true,true,true,false,false,false,true,false,false,false,false,false,false,false,false,false,false,false,false,false,false,false,false,false,false,false,false,false,false,false,false,false,false,false,false,false,false,false,false,false,false,false,false,false,false],"id":2,"left_children":[1,3,5,7,9,11,13,-1,-1,15,17,19,21,23,25,27,29,31,33,35,37,39,41,43,45,47,49,51,53,55,57,59,61,63,-1,65,67,-1,-1,69,71,73,75,77,79,-1,81,83,85,-1,-1,-1,-1,-1,-1,-1,-1,-1,-1,-1,-1,-1,-1,-1,-1,-1,-1,-1,-1,-1,-1,-1,-1,-1,-1,-1,-1,-1,-1,-1,-1,-1,-1,-1,-1,-1,-1],"loss_changes":[3.498115E7,1.5313664E7,8.475456E6,1.4368448E7,4.282768E6,2.041168E6,1.240312E6,0E0,0E0,1.756912E6,4.0048E6,6.90811E5,2.068664E6,6.68628E5,1.03209E5,3.98485E5,4.80092E5,5.14872E6,1.22473E5,2.30178E5,6.914325E4,4.94884E5,4.62504E5,4.04432E5,9.794575E4,1.02567E5,9.357E3,7.942E4,1.3802E4,6.2284E4,1.8202E5,2.28032E6,6.08218E5,1.6265E5,0E0,4.9916E4,1.2057E4,0E0,0E0,2.73874E5,2.3217E5,3.3222E5,2.54282E5,2.0988E5,3.9232E4,0E0,2.6044312E4,3.3395E4,9.112E3,0E0,0E0,0E0,0E0,0E0,0E0,0E0,0E0,0E0,0E0,0E0,0E0,0E0,0E0,0E0,0E0,0E0,0E0,0E0,0E0,0E0,0E0,0E0,0E0,0E0,0E0,0E0,0E0,0E0,0E0,0E0,0E0,0E0,0E0,0E0,0E0,0E0,0E0],"parents":[2147483647,0,0,1,1,2,2,3,3,4,4,5,5,6,6,9,9,10,10,11,11,12,12,13,13,14,14,15,15,16,16,17,17,18,18,19,19,20,20,21,21,22,22,23,23,24,24,25,25,26,26,27,27,28,28,29,29,30,30,31,31,32,32,33,33,35,35,36,36,39,39,40,40,41,41,42,42,43,43,44,44,46,46,47,47,48,48],"right_children":[2,4,6,8,10,12,14,-1,-1,16,18,20,22,24,26,28,30,32,34,36,38,40,42,44,46,48,50,52,54,56,58,60,62,64,-1,66,68,-1,-1,70,72,74,76,78,80,-1,82,84,86,-1,-1,-1,-1,-1,-1,-1,-1,-1,-1,-1,-1,-1,-1,-1,-1,-1,-1,-1,-1,-1,-1,-1,-1,-1,-1,-1,-1,-1,-1,-1,-1,-1,-1,-1,-1,-1,-1],"split_conditions":[2.4571428E1,7.142857E0,1.4277778E0,1.9090909E0,2.8947368E-1,6.078221E0,1.5875E0,4.6888542E1,1.2715859E2,4.5827007E0,1.55E0,2.4166667E0,1.71875E-1,1.9775E0,1.7666667E0,3.1E1,2.8E1,1.3083333E0,6.097561E-1,2.9333334E1,1.2666667E0,1.0076923E1,3.16E1,2.015504E-1,1.4785714E0,1.7821783E-1,1.875E0,2.5925925E-1,1.0416666E0,6.3561807E0,6.9E1,3.6363637E-1,5.111111E0,4.1666666E-1,2.0556797E1,5.0334344E0,2.1428572E-1,1.6975136E1,1.1545334E1,1.6666667E-1,1.34E0,9.5E-1,1.7E0,1.5142857E0,7.692308E-2,1.665501E1,1.14E1,1.6161285E2,1.1032829E2,1.2781206E1,9.921315E0,2.3136356E1,2.9307713E1,1.4267158E1,1.8820782E1,3.7505917E1,4.364257E1,3.3193428E1,2.41945E1,4.631689E1,6.794652E1,2.2302298E1,3.4126965E1,2.417848E1,3.2511887E1,2.430787E1,2.9841146E1,1.8430103E1,2.2768213E1,2.9116825E1,1.8559183E1,2.5167725E1,1.9855436E1,3.7069626E1,3.0963465E1,3.1347303E1,2.4273857E1,2.1288504E1,1.7148125E1,2.3725367E1,2.839501E1,1.2899759E1,8.183848E0,1.4725295E1,1.1794882E1,1.8062908E1,1.5518974E1],"split_indices":[109,109,111,114,118,0,111,0,0,0,110,115,118,113,111,108,108,111,119,109,111,106,109,118,111,118,111,118,111,0,108,6,106,9,0,0,118,0,0,80,111,110,115,111,22,0,106,105,105,0,0,0,0,0,0,0,0,0,0,0,0,0,0,0,0,0,0,0,0,0,0,0,0,0,0,0,0,0,0,0,0,0,0,0,0,0,0],"split_type":[0,0,0,0,0,0,0,0,0,0,0,0,0,0,0,0,0,0,0,0,0,0,0,0,0,0,0,0,0,0,0,0,0,0,0,0,0,0,0,0,0,0,0,0,0,0,0,0,0,0,0,0,0,0,0,0,0,0,0,0,0,0,0,0,0,0,0,0,0,0,0,0,0,0,0,0,0,0,0,0,0,0,0,0,0,0,0],"sum_hessian":[5.334E3,1.805E3,3.529E3,9.3E1,1.712E3,1.856E3,1.673E3,5.5E1,3.8E1,5.46E2,1.166E3,3.29E2,1.527E3,1.01E3,6.63E2,1.95E2,3.51E2,1.012E3,1.54E2,2.08E2,1.21E2,7.07E2,8.2E2,8.57E2,1.53E2,5.08E2,1.55E2,1.23E2,7.2E1,1.34E2,2.17E2,7.62E2,2.5E2,1.17E2,3.7E1,1.15E2,9.3E1,6.1E1,6E1,3.32E2,3.75E2,4.5E2,3.7E2,5.73E2,2.84E2,7.5E1,7.8E1,2.97E2,2.11E2,1.1E2,4.5E1,5.7E1,6.6E1,3.4E1,3.8E1,8.4E1,5E1,1.84E2,3.3E1,7.08E2,5.4E1,6.2E1,1.88E2,6.3E1,5.4E1,5.6E1,5.9E1,6E1,3.3E1,3.01E2,3.1E1,1.97E2,1.78E2,2.93E2,1.57E2,2.96E2,7.4E1,3.39E2,2.34E2,2.45E2,3.9E1,4.7E1,3.1E1,2.1E2,8.7E1,1.25E2,8.6E1],"tree_param":{"num_deleted":"0","num_feature":"129","num_nodes":"87","size_leaf_vector":"0"}},{"base_weights":[2.5801425E2,3.892934E2,2.1678809E2,5.5579614E2,3.4780463E2,2.5844144E2,1.6324136E2,4.0259274E2,7.334897E2,2.671782E2,3.8777475E2,2.0418822E2,2.794987E2,1.9231387E2,1.4298851E2,4.4791592E2,3.1039082E1,9.365028E2,4.733749E1,2.2478969E2,3.196229E2,3.3427228E2,4.401272E2,2.363255E2,1.637961E2,2.009773E2,3.002203E2,2.0373062E2,1.3164317E2,1.659887E2,1.2929974E2,3.692628E1,4.9441963E1,1.181593E2,7.244256E1,1.1410401E1,2.4562668E2,2.1951685E1,3.4749792E2,2.8301285E2,3.8272424E2,4.7107718E2,3.3350583E2,2.2222502E2,2.7201353E1,1.7913712E2,1.1829232E1,2.2744778E2,1.3764613E2,3.4060635E2,2.7799664E2,2.1447324E2,1.519086E2,1.1333249E1,1.6180223E1,1.7433885E2,1.2380324E1,1.3314471E2,8.358859E0,2.9422506E1,2.153452E1,4.35785E1,3.1588614E1,3.502568E1,2.3994915E1,4.6274788E1,3.5444836E1,5.020658E1,3.8118343E1,3.76282E1,2.7434973E1,1.7961592E1,2.4961658E1,2.1061094E1,1.490551E1,2.3953083E1,1.4709811E1,9.31918E0,1.591603E1,3.636497E1,2.9421066E1,2.3782942E1,2.9479654E1,1.9920832E1,2.3901073E1,1.7139944E1,1.05257635E1,1.7917688E1,1.2523795E1,1.4458142E1,1.1999978E1],"categories":[],"categories_nodes":[],"categories_segments":[],"categories_sizes":[],"default_left":[true,true,true,false,true,true,true,true,true,true,true,false,false,true,true,true,false,true,false,true,true,true,true,true,false,true,true,false,true,true,false,false,false,false,false,false,false,false,true,true,true,true,true,true,false,true,false,false,true,true,true,true,true,false,false,true,false,true,false,false,false,false,false,false,false,false,false,false,false,false,false,false,false,false,false,false,false,false,false,false,false,false,false,false,false,false,false,false,false,false,false],"id":3,"left_children":[1,3,5,7,9,11,13,15,17,19,21,23,25,27,29,31,-1,33,-1,35,37,39,41,43,45,47,49,51,53,55,57,-1,-1,-1,-1,-1,59,-1,61,63,65,67,69,71,-1,73,-1,75,77,79,81,83,85,-1,-1,87,-1,89,-1,-1,-1,-1,-1,-1,-1,-1,-1,-1,-1,-1,-1,-1,-1,-1,-1,-1,-1,-1,-1,-1,-1,-1,-1,-1,-1,-1,-1,-1,-1,-1,-1],"loss_changes":[2.8501152E7,8.640816E6,8.923312E6,6.75352E6,3.205808E6,2.544592E6,1.011052E6,5.11068E5,6.026884E6,7.06614E5,1.833664E6,7.92386E5,2.608944E6,4.75242E5,3.05824E5,2.6873E5,0E0,3.245152E6,0E0,4.03802E5,3.76087E5,7.82928E5,1.065656E6,1.42032E5,1.753385E5,5.44422E5,1.110016E6,3.1116E5,4.4247375E4,1.14749E5,9.9424E4,0E0,0E0,0E0,0E0,0E0,1.93905E5,0E0,2.71128E5,4.30697E5,3.29726E5,6.70808E5,1.49302E5,2.65238E5,0E0,1.72704E5,0E0,2.04973E5,7.89315E4,4.404E5,5.22804E5,1.56606E5,7.6107E4,0E0,0E0,5.4707E4,0E0,7.168E4,0E0,0E0,0E0,0E0,0E0,0E0,0E0,0E0,0E0,0E0,0E0,0E0,0E0,0E0,0E0,0E0,0E0,0E0,0E0,0E0,0E0,0E0,0E0,0E0,0E0,0E0,0E0,0E0,0E0,0E0,0E0,0E0,0E0],"parents":[2147483647,0,0,1,1,2,2,3,3,4,4,5,5,6,6,7,7,8,8,9,9,10,10,11,11,12,12,13,13,14,14,15,15,17,17,19,19,20,20,21,21,22,22,23,23,24,24,25,25,26,26,27,27,28,28,29,29,30,30,36,36,38,38,39,39,40,40,41,41,42,42,43,43,45,45,47,47,48,48,49,49,50,50,51,51,52,52,55,55,57,57],"right_children":[2,4,6,8,10,12,14,16,18,20,22,24,26,28,30,32,-1,34,-1,36,38,40,42,44,46,48,50,52,54,56,58,-1,-1,-1,-1,-1,60,-1,62,64,66,68,70,72,-1,74,-1,76,78,80,82,84,86,-1,-1,88,-1,90,-1,-1,-1,-1,-1,-1,-1,-1,-1,-1,-1,-1,-1,-1,-1,-1,-1,-1,-1,-1,-1,-1,-1,-1,-1,-1,-1,-1,-1,-1,-1,-1,-1],"split_conditions":[4.6092007E1,2.0659647E1,1.425E0,1.9090909E0,3.523173E0,1.5555556E-1,1.5142857E0,2.3775E0,2.575E0,4.090909E-1,3.3333334E-1,1.1416667E1,5.509456E0,1.0666667E1,1.09549774E2,1E1,3.1039082E1,1.5084233E1,4.733749E1,2.2715902E0,2.1033082E0,4.8377256E0,1.25E0,8.75E-1,1.4222222E1,2.7E0,2.7333334E1,1.24E0,6.8292683E-1,1.7E0,1.93E0,3.692628E1,4.9441963E1,1.181593E2,7.244256E1,1.1410401E1,2.7582005E1,2.1951685E1,2.5643269E1,3.391025E1,3.63451E1,1.22E0,2.51E0,1.1764706E-1,2.7201353E1,1.3E0,1.1829232E1,1.45E0,3.9498403E0,1.1454545E1,1.8181819E-1,2.015504E-1,1.995E0,1.1333249E1,1.6180223E1,1.8E0,1.2380324E1,1.65E0,8.358859E0,2.9422506E1,2.153452E1,4.35785E1,3.1588614E1,3.502568E1,2.3994915E1,4.6274788E1,3.5444836E1,5.020658E1,3.8118343E1,3.76282E1,2.7434973E1,1.7961592E1,2.4961658E1,2.1061094E1,1.490551E1,2.3953083E1,1.4709811E1,9.31918E0,1.591603E1,3.636497E1,2.9421066E1,2.3782942E1,2.9479654E1,1.9920832E1,2.3901073E1,1.7139944E1,1.05257635E1,1.7917688E1,1.2523795E1,1.4458142E1,1.1999978E1],"split_indices":[105,105,111,114,0,118,111,113,115,118,118,106,0,106,105,108,0,105,0,0,0,0,110,1,106,115,109,112,120,111,113,0,0,0,0,0,105,0,105,105,105,111,112,118,0,111,0,110,0,106,1,118,113,0,0,113,0,111,0,0,0,0,0,0,0,0,0,0,0,0,0,0,0,0,0,0,0,0,0,0,0,0,0,0,0,0,0,0,0,0,0],"split_type":[0,0,0,0,0,0,0,0,0,0,0,0,0,0,0,0,0,0,0,0,0,0,0,0,0,0,0,0,0,0,0,0,0,0,0,0,0,0,0,0,0,0,0,0,0,0,0,0,0,0,0,0,0,0,0,0,0,0,0,0,0,0,0,0,0,0,0,0,0,0,0,0,0,0,0,0,0,0,0,0,0,0,0,0,0,0,0,0,0,0,0],"sum_hessian":[5.274E3,1.26E3,4.014E3,2.51E2,1.009E3,2.257E3,1.757E3,1.35E2,1.16E2,3.35E2,6.74E2,6.32E2,1.625E3,7.2E2,1.037E3,9E1,4.5E1,6.5E1,5.1E1,1.86E2,1.49E2,3.34E2,3.4E2,3.51E2,2.81E2,3.4E2,1.285E3,6.05E2,1.15E2,3.85E2,6.52E2,3.4E1,5.6E1,3E1,3.5E1,3E1,1.56E2,3.3E1,1.16E2,1.63E2,1.71E2,2.63E2,7.7E1,2.53E2,9.8E1,2.09E2,7.2E1,2.39E2,1.01E2,4.55E2,8.3E2,5E2,1.05E2,7.3E1,4.2E1,3.2E2,6.5E1,6E2,5.2E1,5.9E1,9.7E1,3E1,8.6E1,6.3E1,1E2,4.4E1,1.27E2,1.95E2,6.8E1,4.4E1,3.3E1,1E2,1.53E2,1.01E2,1.08E2,2.07E2,3.2E1,3.4E1,6.7E1,3.03E2,1.52E2,2.46E2,5.84E2,3.1E2,1.9E2,7.3E1,3.2E1,2.9E2,3E1,3.18E2,2.82E2],"tree_param":{"num_deleted":"0","num_feature":"129","num_nodes":"91","size_leaf_vector":"0"}},{"base_weights":[2.3336058E2,3.41812E2,1.9395154E2,3.238697E2,6.7227454E2,2.301958E2,1.4592557E2,4.542818E2,3.0207294E2,5.1299427E1,8.806774E1,1.9365414E2,2.5443011E2,1.6680176E2,1.2041279E2,3.2718213E2,6.663221E2,3.1764255E2,1.7733261E2,1.338056E2,2.1019136E2,1.9435452E2,2.774676E2,1.7606541E2,1.1565083E2,1.3419794E2,1.0865721E2,3.8445236E2,2.545437E1,5.1612057E1,8.692642E1,3.35416E2,1.995176E2,2.0323225E2,1.1244159E1,1.477523E2,7.940683E0,1.8110583E2,2.277376E2,2.1883807E2,1.2736874E2,3.2045908E2,2.5461954E2,1.8032991E2,1.0401353E1,1.3467822E1,9.535163E0,1.4055525E2,1.03151865E1,1.131773E2,8.080993E0,3.5020824E1,4.1278286E1,3.490757E1,2.371261E1,1.585189E1,2.332804E1,2.341421E1,1.8580503E1,1.5522939E1,1.1526142E1,1.5035731E1,2.230602E1,2.0286516E1,2.4893736E1,1.9914368E1,2.4922157E1,1.4506151E1,8.630073E0,3.4727516E1,2.8533558E1,2.22806E1,2.7500034E1,1.9206615E1,1.6449484E1,1.1850015E1,1.4806525E1,1.1672038E1,8.839443E0],"categories":[],"categories_nodes":[],"categories_segments":[],"categories_sizes":[],"default_left":[true,true,true,false,true,true,true,true,false,false,false,false,true,true,true,true,false,false,false,true,true,true,false,true,true,false,true,true,false,false,false,true,true,true,false,true,false,false,true,true,true,true,true,true,false,false,false,true,false,true,false,false,false,false,false,false,false,false,false,false,false,false,false,false,false,false,false,false,false,false,false,false,false,false,false,false,false,false,false],"id":4,"left_children":[1,3,5,7,9,11,13,15,17,-1,-1,19,21,23,25,27,29,31,33,35,37,39,41,43,45,47,49,51,-1,-1,-1,53,55,57,-1,59,-1,61,63,65,67,69,71,73,-1,-1,-1,75,-1,77,-1,-1,-1,-1,-1,-1,-1,-1,-1,-1,-1,-1,-1,-1,-1,-1,-1,-1,-1,-1,-1,-1,-1,-1,-1,-1,-1,-1,-1],"loss_changes":[2.2452128E7,8.243104E6,6.692656E6,3.727664E6,2.292446E6,1.915992E6,8.64556E5,5.051004E6,2.179416E6,0E0,0E0,8.44902E5,1.795224E6,4.11726E5,1.04377E5,4.50313E5,2.067262E6,2.089336E6,1.91346E5,1.2900725E5,3.21986E5,5.77664E5,8.9684E5,2.16996E5,3.8357875E4,5.04415E4,3.7651E4,1.062E4,0E0,0E0,0E0,1.140464E6,1.566765E5,1.908425E4,0E0,1.7749E4,0E0,3.09269E5,1.93528E5,1.28982E5,5.573875E4,2.6654E5,3.69748E5,1.1015E5,0E0,0E0,0E0,2.8049E4,0E0,1.6199E4,0E0,0E0,0E0,0E0,0E0,0E0,0E0,0E0,0E0,0E0,0E0,0E0,0E0,0E0,0E0,0E0,0E0,0E0,0E0,0E0,0E0,0E0,0E0,0E0,0E0,0E0,0E0,0E0,0E0],"parents":[2147483647,0,0,1,1,2,2,3,3,4,4,5,5,6,6,7,7,8,8,11,11,12,12,13,13,14,14,15,15,16,16,17,17,18,18,19,19,20,20,21,21,22,22,23,23,24,24,25,25,26,26,27,27,31,31,32,32,33,33,35,35,37,37,38,38,39,39,40,40,41,41,42,42,43,43,47,47,49,49],"right_children":[2,4,6,8,10,12,14,16,18,-1,-1,20,22,24,26,28,30,32,34,36,38,40,42,44,46,48,50,52,-1,-1,-1,54,56,58,-1,60,-1,62,64,66,68,70,72,74,-1,-1,-1,76,-1,78,-1,-1,-1,-1,-1,-1,-1,-1,-1,-1,-1,-1,-1,-1,-1,-1,-1,-1,-1,-1,-1,-1,-1,-1,-1,-1,-1,-1,-1],"split_conditions":[4.87225E1,2.5E-1,1.4277778E0,2.0659647E1,1.16E1,1.75E-1,1.5666667E0,2.978737E0,3.1E0,5.1299427E1,8.806774E1,6.848878E0,6.121655E0,1.0818182E1,5.25E1,9.066667E0,1.3666667E1,1.3777778E0,9.6875E-1,2.295E0,1.2244898E-1,2.7E0,2.7444445E1,3E-1,1.1818182E1,1.7428571E0,7.4E0,3.529412E-1,2.545437E1,5.1612057E1,8.692642E1,1.45E0,1.625E0,2.898864E1,1.1244159E1,5E-2,7.940683E0,7.5E-1,4.4444445E-1,3.3684212E-1,4E-1,9.5E-1,2.9166666E-1,1.5E0,1.0401353E1,1.3467822E1,9.535163E0,1.7272727E-1,1.03151865E1,6E-1,8.080993E0,3.5020824E1,4.1278286E1,3.490757E1,2.371261E1,1.585189E1,2.332804E1,2.341421E1,1.8580503E1,1.5522939E1,1.1526142E1,1.5035731E1,2.230602E1,2.0286516E1,2.4893736E1,1.9914368E1,2.4922157E1,1.4506151E1,8.630073E0,3.4727516E1,2.8533558E1,2.22806E1,2.7500034E1,1.9206615E1,1.6449484E1,1.1850015E1,1.4806525E1,1.1672038E1,8.839443E0],"split_indices":[105,6,111,105,106,118,111,0,115,0,0,0,0,106,109,106,106,111,111,113,118,115,109,80,106,111,116,119,0,0,0,110,114,105,0,53,0,1,1,118,18,110,1,111,0,0,0,118,0,110,0,0,0,0,0,0,0,0,0,0,0,0,0,0,0,0,0,0,0,0,0,0,0,0,0,0,0,0,0],"split_type":[0,0,0,0,0,0,0,0,0,0,0,0,0,0,0,0,0,0,0,0,0,0,0,0,0,0,0,0,0,0,0,0,0,0,0,0,0,0,0,0,0,0,0,0,0,0,0,0,0,0,0,0,0,0,0,0,0,0,0,0,0,0,0,0,0,0,0,0,0,0,0,0,0,0,0,0,0,0,0],"sum_hessian":[5.262E3,1.402E3,3.86E3,1.33E3,7.2E1,2.199E3,1.661E3,1.9E2,1.14E3,4.1E1,3.1E1,8.78E2,1.321E3,9.12E2,7.49E2,1.19E2,7.1E1,1.013E3,1.27E2,1.91E2,6.87E2,3.67E2,9.54E2,7.71E2,1.41E2,3.42E2,4.07E2,6.6E1,5.3E1,4.1E1,3E1,8.8E2,1.33E2,9E1,3.7E1,1.51E2,4E1,2.6E2,4.27E2,2.68E2,9.9E1,3.3E2,6.24E2,7.27E2,4.4E1,7.1E1,7E1,2.82E2,6E1,3.48E2,5.9E1,3.1E1,3.5E1,7.72E2,1.08E2,6.1E1,7.2E1,3.1E1,5.9E1,1.21E2,3E1,1.51E2,1.09E2,1.98E2,2.29E2,1.64E2,1.04E2,6.8E1,3.1E1,1.86E2,1.44E2,2.45E2,3.79E2,4.15E2,3.12E2,7.4E1,2.08E2,3.02E2,4.6E1],"tree_param":{"num_deleted":"0","num_feature":"129","num_nodes":"79","size_leaf_vector":"0"}},{"base_weights":[2.0682349E2,3.117648E2,1.757307E2,4.572836E2,2.7925812E2,2.068111E2,1.2861632E2,2.7034283E2,5.61527E2,2.2064955E2,3.1775314E2,1.7968857E2,2.3488841E2,1.4623685E2,1.0362843E2,3.6108444E1,1.8453354E1,7.410521E1,4.2768124E1,1.8412155E2,2.6744888E2,3.3375027E2,1.5941794E1,1.9517229E2,1.420995E2,1.700489E2,2.5536212E2,1.570608E2,1.0291455E2,1.0910799E2,8.392502E1,2.1060933E2,1.4404979E2,2.9460733E2,1.9639702E1,2.7968423E2,3.64847E2,1.55509E2,2.0636996E2,1.6580867E2,9.953931E1,2.2528094E2,1.40611E2,2.7214957E2,2.1478706E2,1.7440334E2,1.4068996E2,8.5378296E1,1.3661931E1,1.1219403E2,6.266458E0,9.123443E0,7.0899315E0,1.8396406E1,2.5431458E1,1.5942494E1,1.215726E1,2.515406E1,3.168807E1,2.0194147E1,3.0079996E1,4.1050034E1,3.3509914E1,1.3991045E1,2.3948774E1,2.5077871E1,1.9385824E1,1.5092961E1,2.2674519E1,1.1937808E1,7.863992E0,1.929916E1,2.6645521E1,1.0948724E1,1.6567488E1,2.9036743E1,2.3977453E1,2.361365E1,1.8469404E1,1.2406047E1,1.7951513E1,1.0190167E1,1.4602706E1,1.0792675E1,7.6039214E0,1.1605464E1,8.045763E0],"categories":[],"categories_nodes":[],"categories_segments":[],"categories_sizes":[],"default_left":[true,true,false,true,true,true,true,false,true,true,true,true,true,false,true,false,false,false,false,false,true,true,false,true,true,true,true,true,true,false,true,true,false,true,false,true,true,false,false,true,true,true,false,false,true,true,true,false,false,true,false,false,false,false,false,false,false,false,false,false,false,false,false,false,false,false,false,false,false,false,false,false,false,false,false,false,false,false,false,false,false,false,false,false,false,false,false],"id":5,"left_children":[1,3,5,7,9,11,13,15,17,19,21,23,25,27,29,-1,-1,-1,-1,31,33,35,-1,37,39,41,43,45,47,49,51,53,55,57,-1,59,61,63,65,67,69,71,73,75,77,79,81,83,-1,85,-1,-1,-1,-1,-1,-1,-1,-1,-1,-1,-1,-1,-1,-1,-1,-1,-1,-1,-1,-1,-1,-1,-1,-1,-1,-1,-1,-1,-1,-1,-1,-1,-1,-1,-1,-1,-1],"loss_changes":[1.7203872E7,5.657952E6,5.945144E6,4.228984E6,2.18912E6,1.840528E6,6.96236E5,5.769385E5,3.306232E6,6.3851E5,1.47256E6,7.03916E5,1.569868E6,4.26806E5,5.9041E4,0E0,0E0,0E0,0E0,2.09746E5,2.95602E5,8.62772E5,0E0,3.67284E5,3.507445E5,4.45903E5,5.89172E5,1.93148E5,9.7351625E4,6.27195E4,2.836875E3,1.230395E5,1.1087625E4,7.8197E4,0E0,2.89844E5,4.12272E5,2.301915E5,3.5115E5,1.857255E5,4.0868375E4,1.00788E5,1.289545E5,3.43904E5,1.43366E5,7.2937E4,6.37955E4,1.386625E4,0E0,4.61575E4,0E0,0E0,0E0,0E0,0E0,0E0,0E0,0E0,0E0,0E0,0E0,0E0,0E0,0E0,0E0,0E0,0E0,0E0,0E0,0E0,0E0,0E0,0E0,0E0,0E0,0E0,0E0,0E0,0E0,0E0,0E0,0E0,0E0,0E0,0E0,0E0,0E0],"parents":[2147483647,0,0,1,1,2,2,3,3,4,4,5,5,6,6,7,7,8,8,9,9,10,10,11,11,12,12,13,13,14,14,19,19,20,20,21,21,23,23,24,24,25,25,26,26,27,27,28,28,29,29,30,30,31,31,32,32,33,33,35,35,36,36,37,37,38,38,39,39,40,40,41,41,42,42,43,43,44,44,45,45,46,46,47,47,49,49],"right_children":[2,4,6,8,10,12,14,16,18,20,22,24,26,28,30,-1,-1,-1,-1,32,34,36,-1,38,40,42,44,46,48,50,52,54,56,58,-1,60,62,64,66,68,70,72,74,76,78,80,82,84,-1,86,-1,-1,-1,-1,-1,-1,-1,-1,-1,-1,-1,-1,-1,-1,-1,-1,-1,-1,-1,-1,-1,-1,-1,-1,-1,-1,-1,-1,-1,-1,-1,-1,-1,-1,-1,-1,-1],"split_conditions":[4.559E1,2.0659647E1,1.4388889E0,2.2715902E0,3.7019372E0,2.015504E-1,1.5875E0,1.3102163E1,1.48E0,1.9166666E0,5E-1,1.2307693E1,5.509456E0,1.9E0,1.7666667E0,3.6108444E1,1.8453354E1,7.410521E1,4.2768124E1,3.1730858E1,1E0,2.962963E-1,1.5941794E1,2.7272728E-1,1.2857143E0,1.2E0,7.1545555E1,4.12E1,3.6363637E-1,2.064516E0,4.5E-1,5.5555556E-2,4.722222E-1,9E0,1.9639702E1,4.541438E0,1.5571428E1,1.6666667E-1,1.315E0,8.896312E0,5.1E-1,2.881356E-1,4.5827007E0,9.5E-1,1.7777778E-1,1.5E-1,1E-1,1.46E0,1.3661931E1,2E-1,6.266458E0,9.123443E0,7.0899315E0,1.8396406E1,2.5431458E1,1.5942494E1,1.215726E1,2.515406E1,3.168807E1,2.0194147E1,3.0079996E1,4.1050034E1,3.3509914E1,1.3991045E1,2.3948774E1,2.5077871E1,1.9385824E1,1.5092961E1,2.2674519E1,1.1937808E1,7.863992E0,1.929916E1,2.6645521E1,1.0948724E1,1.6567488E1,2.9036743E1,2.3977453E1,2.361365E1,1.8469404E1,1.2406047E1,1.7951513E1,1.0190167E1,1.4602706E1,1.0792675E1,7.6039214E0,1.1605464E1,8.045763E0],"split_indices":[105,105,111,0,0,118,111,105,112,114,10,106,0,113,111,0,0,0,0,105,116,118,0,1,111,112,105,109,1,115,110,4,119,108,0,0,109,73,111,0,112,118,0,110,119,110,118,111,0,81,0,0,0,0,0,0,0,0,0,0,0,0,0,0,0,0,0,0,0,0,0,0,0,0,0,0,0,0,0,0,0,0,0,0,0,0,0],"split_type":[0,0,0,0,0,0,0,0,0,0,0,0,0,0,0,0,0,0,0,0,0,0,0,0,0,0,0,0,0,0,0,0,0,0,0,0,0,0,0,0,0,0,0,0,0,0,0,0,0,0,0,0,0,0,0,0,0,0,0,0,0,0,0,0,0,0,0,0,0,0,0,0,0,0,0,0,0,0,0,0,0,0,0,0,0,0,0],"sum_hessian":[5.283E3,1.207E3,4.076E3,2.2E2,9.87E2,2.455E3,1.621E3,7.9E1,1.41E2,3.92E2,5.95E2,1.25E3,1.205E3,9.49E2,6.72E2,3.8E1,4.1E1,6E1,8.1E1,2.21E2,1.71E2,5.4E2,5.5E1,8.84E2,3.66E2,2.9E2,9.15E2,7.58E2,1.91E2,5.23E2,1.49E2,1.32E2,8.9E1,1.23E2,4.8E1,1.98E2,3.42E2,1.96E2,6.88E2,2.34E2,1.32E2,1E2,1.9E2,6.46E2,2.69E2,3.66E2,3.92E2,1.27E2,6.4E1,4.89E2,3.4E1,9.2E1,5.7E1,8.3E1,4.9E1,5.1E1,3.8E1,4.3E1,8E1,4.3E1,1.55E2,1.34E2,2.08E2,1.66E2,3E1,1.5E2,5.38E2,1.89E2,4.5E1,6.6E1,6.6E1,5.7E1,4.3E1,8.6E1,1.04E2,4.12E2,2.34E2,1.56E2,1.13E2,3.5E1,3.31E2,4.9E1,3.43E2,3.5E1,9.2E1,4.34E2,5.5E1],"tree_param":{"num_deleted":"0","num_feature":"129","num_nodes":"87","size_leaf_vector":"0"}},{"base_weights":[1.8883046E2,2.3896771E2,1.3243591E2,2.1093307E2,3.461781E2,1.5392375E2,1.0726281E2,1.8201552E2,2.4197179E2,4.1253418E2,2.4893614E2,1.7224522E2,1.248611E2,1.0030161E2,1.6935074E2,1.5281036E2,2.0484119E2,2.0078438E2,2.7898047E2,5.0465485E2,3.283904E2,2.820728E2,1.8471286E2,1.8373E2,1.2748279E2,1.3132736E2,7.247013E0,9.106213E1,1.1742292E2,1.4554443E1,1.8675566E1,1.3412163E2,2.0683775E2,1.8174617E2,2.3042213E2,2.1130122E2,1.2481193E1,2.9388272E2,2.2733966E2,4.582896E2,6.744201E1,3.7931903E2,2.766663E2,3.1237213E2,2.113896E1,1.6087095E1,2.0620874E1,1.6304124E2,2.0092776E2,1.4662448E2,8.571166E0,1.3579843E2,8.943278E0,7.3575676E1,1.0560953E2,1.2427804E2,1.006957E2,1.5234603E1,9.898717E0,1.812781E1,2.4186497E1,1.2297724E1,1.9551935E1,2.8496988E1,2.1265575E1,2.4612595E1,1.825949E1,3.1739096E1,2.6631989E1,2.5587528E1,1.9471565E1,4.9984756E1,3.5643402E1,3.100301E1,4.3057858E1,3.0728851E1,2.2088995E1,3.3002457E1,2.8630854E1,1.571257E1,2.0430916E1,2.1694462E1,1.8860205E1,1.6811771E1,1.3272853E1,1.2189872E1,1.48064375E1,8.365355E0,5.9217024E0,1.2071031E1,9.6E0,1.083491E1,1.3167345E1,1.1556434E1,7.4784164E0],"categories":[],"categories_nodes":[],"categories_segments":[],"categories_sizes":[],"default_left":[true,true,true,true,true,false,true,true,true,true,true,true,true,true,true,true,true,true,false,true,true,true,true,true,true,true,false,true,true,false,false,false,true,true,true,false,false,true,false,true,false,true,false,true,false,false,false,true,true,false,false,true,false,true,true,false,true,false,false,false,false,false,false,false,false,false,false,false,false,false,false,false,false,false,false,false,false,false,false,false,false,false,false,false,false,false,false,false,false,false,false,false,false,false,false],"id":6,"left_children":[1,3,5,7,9,11,13,15,17,19,21,23,25,27,29,31,33,35,37,39,41,43,45,47,49,51,-1,53,55,-1,-1,57,59,61,63,65,-1,67,69,71,-1,73,75,77,-1,-1,-1,79,81,83,-1,85,-1,87,89,91,93,-1,-1,-1,-1,-1,-1,-1,-1,-1,-1,-1,-1,-1,-1,-1,-1,-1,-1,-1,-1,-1,-1,-1,-1,-1,-1,-1,-1,-1,-1,-1,-1,-1,-1,-1,-1,-1,-1],"loss_changes":[1.457504E7,8.175312E6,1.296684E6,1.915336E6,3.605872E6,6.7674E5,4.65627E5,7.23588E5,1.557784E6,2.546152E6,4.56799E5,3.90512E5,1.578315E5,1.45023E5,2.3146E4,4.74926E5,3.42758E5,3.71974E5,3.86008E5,1.180104E6,4.17706E5,2.86726E5,1.479225E4,2.01166E5,1.156655E5,6.87125E4,0E0,1.54841E5,2.45E4,0E0,0E0,2.180385E5,8.3185E4,2.46438E5,2.52995E5,4.03856E5,0E0,2.3452E5,8.3896E4,4.73406E5,0E0,2.60709E5,1.13331E5,5.166E3,0E0,0E0,0E0,4.5739E4,3.9919E4,1.239175E4,0E0,5.0323E4,0E0,3.355525E4,3.6635E4,1.217775E4,2.7128875E4,0E0,0E0,0E0,0E0,0E0,0E0,0E0,0E0,0E0,0E0,0E0,0E0,0E0,0E0,0E0,0E0,0E0,0E0,0E0,0E0,0E0,0E0,0E0,0E0,0E0,0E0,0E0,0E0,0E0,0E0,0E0,0E0,0E0,0E0,0E0,0E0,0E0,0E0],"parents":[2147483647,0,0,1,1,2,2,3,3,4,4,5,5,6,6,7,7,8,8,9,9,10,10,11,11,12,12,13,13,14,14,15,15,16,16,17,17,18,18,19,19,20,20,21,21,22,22,23,23,24,24,25,25,27,27,28,28,31,31,32,32,33,33,34,34,35,35,37,37,38,38,39,39,41,41,42,42,43,43,47,47,48,48,49,49,51,51,53,53,54,54,55,55,56,56],"right_children":[2,4,6,8,10,12,14,16,18,20,22,24,26,28,30,32,34,36,38,40,42,44,46,48,50,52,-1,54,56,-1,-1,58,60,62,64,66,-1,68,70,72,-1,74,76,78,-1,-1,-1,80,82,84,-1,86,-1,88,90,92,94,-1,-1,-1,-1,-1,-1,-1,-1,-1,-1,-1,-1,-1,-1,-1,-1,-1,-1,-1,-1,-1,-1,-1,-1,-1,-1,-1,-1,-1,-1,-1,-1,-1,-1,-1,-1,-1,-1],"split_conditions":[1.3678571E0,3.814433E-1,4.4E1,2.5E-1,1.05E0,1.4785714E0,7.5E-1,2.7272728E-1,1.875E-1,1.24E1,1.1166667E0,1.25E0,1.7E0,2.9166666E-1,2.8E1,5.7894737E-1,1.7272727E0,2.995E0,1E0,1E-1,1.24E0,1.55E0,7.692308E-2,2.0833333E-1,1.995E0,1.5454545E0,7.247013E0,1.3157895E-1,7.4E0,1.4554443E1,1.8675566E1,2.7E0,2.1794872E-1,6.1775875E0,2.244898E-1,1.2E0,1.2481193E1,1.22E0,2.8125E-1,1.6666667E-1,6.744201E1,4.347826E-2,6E-1,3.0013317E1,2.113896E1,1.6087095E1,2.0620874E1,8.5714287E-1,1.4125E0,2.6E1,8.571166E0,3.125E-2,8.943278E0,7.4E0,1.200055E2,1.71E0,1.4642857E0,1.5234603E1,9.898717E0,1.812781E1,2.4186497E1,1.2297724E1,1.9551935E1,2.8496988E1,2.1265575E1,2.4612595E1,1.825949E1,3.1739096E1,2.6631989E1,2.5587528E1,1.9471565E1,4.9984756E1,3.5643402E1,3.100301E1,4.3057858E1,3.0728851E1,2.2088995E1,3.3002457E1,2.8630854E1,1.571257E1,2.0430916E1,2.1694462E1,1.8860205E1,1.6811771E1,1.3272853E1,1.2189872E1,1.48064375E1,8.365355E0,5.9217024E0,1.2071031E1,9.6E0,1.083491E1,1.3167345E1,1.1556434E1,7.4784164E0],"split_indices":[111,118,109,118,110,111,1,1,1,109,111,115,111,1,108,9,114,113,110,6,111,110,116,118,113,115,0,118,116,0,0,115,118,0,120,110,0,111,120,4,0,1,110,105,0,0,0,1,111,108,0,119,0,116,105,113,111,0,0,0,0,0,0,0,0,0,0,0,0,0,0,0,0,0,0,0,0,0,0,0,0,0,0,0,0,0,0,0,0,0,0,0,0,0,0],"split_type":[0,0,0,0,0,0,0,0,0,0,0,0,0,0,0,0,0,0,0,0,0,0,0,0,0,0,0,0,0,0,0,0,0,0,0,0,0,0,0,0,0,0,0,0,0,0,0,0,0,0,0,0,0,0,0,0,0,0,0,0,0,0,0,0,0,0,0,0,0,0,0,0,0,0,0,0,0,0,0,0,0,0,0,0,0,0,0,0,0,0,0,0,0,0,0],"sum_hessian":[5.164E3,2.733E3,2.431E3,2.167E3,5.66E2,1.31E3,1.121E3,1.123E3,1.044E3,3.36E2,2.3E2,8.02E2,5.08E2,1.009E3,1.12E2,4.94E2,6.29E2,4.95E2,5.49E2,1.6E2,1.76E2,1.51E2,7.9E1,6.37E2,1.65E2,4.51E2,5.7E1,6.58E2,3.51E2,4.9E1,6.3E1,3.68E2,1.26E2,3.32E2,2.97E2,4.34E2,6.1E1,4.25E2,1.24E2,1.26E2,3.4E1,8.8E1,8.8E1,1.05E2,4.6E1,3.9E1,4E1,2.91E2,3.46E2,1.12E2,5.3E1,4.06E2,4.5E1,3.01E2,3.57E2,2.46E2,1.05E2,2.41E2,1.27E2,7.4E1,5.2E1,6.4E1,2.68E2,7.2E1,2.25E2,1.95E2,2.39E2,2.28E2,1.97E2,6.5E1,5.9E1,8.9E1,3.7E1,3.8E1,5E1,5.6E1,3.2E1,6.1E1,4.4E1,2.56E2,3.5E1,1.48E2,1.98E2,4.2E1,7E1,1.93E2,2.13E2,1.74E2,1.27E2,1.36E2,2.21E2,8.1E1,1.65E2,6.5E1,4E1],"tree_param":{"num_deleted":"0","num_feature":"129","num_nodes":"95","size_leaf_vector":"0"}},{"base_weights":[1.7130254E2,2.6110382E2,1.4437366E2,2.4486581E2,5.1096924E2,1.7565921E2,1.09963806E2,2.3535245E2,4.558375E1,6.464727E1,4.1165276E1,1.9523882E2,1.405193E2,1.2831757E2,9.477891E1,1.6573468E2,2.607307E2,2.1668019E2,1.734412E2,1.6380841E2,9.92566E1,1.3601808E2,8.6381165E1,1.1580951E2,8.33697E1,7.5702996E0,1.8308783E2,2.119633E2,3.0896008E2,2.4984067E2,1.9833257E2,1.6166309E2,2.102248E2,1.122642E2,1.8165445E2,1.1687231E2,4.9311565E1,1.4631618E2,1.1227308E2,1.02167534E2,6.781781E0,1.23446175E2,7.066063E0,4.9541583E0,8.665705E1,2.0310072E1,1.0926753E1,1.7530457E1,2.4772665E1,2.8610655E1,5.5425728E1,2.4000109E1,3.1487253E1,2.0746529E1,1.3525832E1,1.7026098E1,9.998109E0,2.2954502E1,1.6993027E1,1.4532439E1,8.114888E0,2.0003836E1,1.3811053E1,1.5252376E1,1.0315048E1,3.0386014E0,6.317514E0,1.3963801E1,1.8203318E1,1.2257309E1,9.770328E0,7.4909754E0,1.289829E1,9.633819E0,1.3115837E1,9.71152E0,7.6597376E0],"categories":[],"categories_nodes":[],"categories_segments":[],"categories_sizes":[],"default_left":[true,false,true,true,true,false,true,true,false,false,false,true,false,true,true,true,true,false,true,false,false,true,true,true,true,false,true,true,true,true,false,false,false,true,true,true,true,true,true,true,false,true,false,false,true,false,false,false,false,false,false,false,false,false,false,false,false,false,false,false,false,false,false,false,false,false,false,false,false,false,false,false,false,false,false,false,false],"id":7,"left_children":[1,3,5,7,9,11,13,15,-1,-1,-1,17,19,21,23,25,27,29,31,33,35,37,39,41,43,-1,45,47,49,51,53,55,57,59,61,63,65,67,69,71,-1,73,-1,-1,75,-1,-1,-1,-1,-1,-1,-1,-1,-1,-1,-1,-1,-1,-1,-1,-1,-1,-1,-1,-1,-1,-1,-1,-1,-1,-1,-1,-1,-1,-1,-1,-1],"loss_changes":[1.273512E7,4.88484E6,4.3518E6,2.24568E6,9.21804E5,1.43924E6,5.23668E5,1.903004E6,0E0,0E0,0E0,6.10188E5,7.13845E5,2.66675E5,2.40637E5,4.396485E5,1.847504E6,3.86002E5,2.67706E5,4.26478E5,2.311965E5,1.62117E5,2.8248562E4,1.14329E5,6.7197E4,0E0,3.40087E5,4.93494E5,2.194752E6,1.16651E5,2.31196E5,2.54206E5,9.8932E4,1.13760375E5,2.64512E5,8.1411E4,1.2604156E4,9.9607E4,1.834625E4,3.835425E4,0E0,5.0139E4,0E0,0E0,5.3804E4,0E0,0E0,0E0,0E0,0E0,0E0,0E0,0E0,0E0,0E0,0E0,0E0,0E0,0E0,0E0,0E0,0E0,0E0,0E0,0E0,0E0,0E0,0E0,0E0,0E0,0E0,0E0,0E0,0E0,0E0,0E0,0E0],"parents":[2147483647,0,0,1,1,2,2,3,3,4,4,5,5,6,6,7,7,11,11,12,12,13,13,14,14,15,15,16,16,17,17,18,18,19,19,20,20,21,21,22,22,23,23,24,24,26,26,27,27,28,28,29,29,30,30,31,31,32,32,33,33,34,34,35,35,36,36,37,37,38,38,39,39,41,41,44,44],"right_children":[2,4,6,8,10,12,14,16,-1,-1,-1,18,20,22,24,26,28,30,32,34,36,38,40,42,44,-1,46,48,50,52,54,56,58,60,62,64,66,68,70,72,-1,74,-1,-1,76,-1,-1,-1,-1,-1,-1,-1,-1,-1,-1,-1,-1,-1,-1,-1,-1,-1,-1,-1,-1,-1,-1,-1,-1,-1,-1,-1,-1,-1,-1,-1,-1],"split_conditions":[4.419633E1,2E-1,1.4045454E0,2E-1,3.620507E0,1.15E1,1.03165E2,2.871639E0,4.558375E1,6.464727E1,4.1165276E1,1.3277777E0,1.2357143E0,1.34E0,1.525E0,3.4615386E-1,3.448276E-1,3.8E1,8.75E-1,5.4235473E0,2.28E0,1.5375E0,1.8525E0,9.571428E0,5.778249E0,7.5702996E0,1.425E0,4.6214247E0,1.3793103E1,3.3333334E-1,7.5E1,2.02875E0,3.7037036E-1,2.28E0,7.1E1,6.92702E1,1.5555556E-1,3.043478E-1,1.6083333E0,1.625E0,6.781781E0,9.876543E-2,7.066063E0,4.9541583E0,1.40166E2,2.0310072E1,1.0926753E1,1.7530457E1,2.4772665E1,2.8610655E1,5.5425728E1,2.4000109E1,3.1487253E1,2.0746529E1,1.3525832E1,1.7026098E1,9.998109E0,2.2954502E1,1.6993027E1,1.4532439E1,8.114888E0,2.0003836E1,1.3811053E1,1.5252376E1,1.0315048E1,3.0386014E0,6.317514E0,1.3963801E1,1.8203318E1,1.2257309E1,9.770328E0,7.4909754E0,1.289829E1,9.633819E0,1.3115837E1,9.71152E0,7.6597376E0],"split_indices":[105,6,111,5,0,106,105,0,0,0,0,111,111,112,111,118,118,108,1,0,113,111,113,116,0,0,111,0,106,42,108,113,121,113,108,105,118,118,111,114,0,118,0,0,105,0,0,0,0,0,0,0,0,0,0,0,0,0,0,0,0,0,0,0,0,0,0,0,0,0,0,0,0,0,0,0,0],"split_type":[0,0,0,0,0,0,0,0,0,0,0,0,0,0,0,0,0,0,0,0,0,0,0,0,0,0,0,0,0,0,0,0,0,0,0,0,0,0,0,0,0,0,0,0,0,0,0,0,0,0,0,0,0,0,0,0,0,0,0,0,0,0,0,0,0,0,0,0,0,0,0,0,0,0,0,0,0],"sum_hessian":[5.278E3,1.217E3,4.061E3,1.143E3,7.4E1,2.126E3,1.935E3,1.094E3,4.9E1,3.1E1,4.3E1,1.364E3,7.62E2,8.74E2,1.061E3,2.93E2,8.01E2,6.86E2,6.78E2,4.86E2,2.76E2,7.37E2,1.37E2,3.71E2,6.9E2,4.8E1,2.45E2,3.99E2,4.02E2,2.43E2,4.43E2,5.15E2,1.63E2,1.26E2,3.6E2,2.03E2,7.3E1,5.12E2,2.25E2,7.2E1,6.5E1,3.16E2,5.5E1,6.3E1,6.27E2,1.92E2,5.3E1,1.98E2,2.01E2,3.68E2,3.4E1,2.12E2,3.1E1,3.86E2,5.7E1,4.51E2,6.4E1,1.09E2,5.4E1,6E1,6.6E1,2.52E2,1.08E2,5.5E1,1.48E2,3.3E1,4E1,4.33E2,7.9E1,1.29E2,9.6E1,3.7E1,3.5E1,7.2E1,2.44E2,3.04E2,3.23E2],"tree_param":{"num_deleted":"0","num_feature":"129","num_nodes":"77","size_leaf_vector":"0"}},{"base_weights":[1.5264357E2,2.565972E2,1.3325241E2,5.035283E1,2.3540414E2,1.5961246E2,9.7988174E1,1.1122314E2,2.6016797E2,1.665954E2,8.084821E1,1.1163872E2,8.401108E1,1.6235003E1,5.979669E0,4.0978275E1,2.4083224E2,1.8951212E2,1.4269803E2,5.4747078E1,1.2575561E2,1.1834846E2,6.91902E1,7.361032E1,1.02291115E2,2.2336752E2,3.222128E2,1.4660577E2,2.0583018E2,1.638575E2,1.1914441E2,2.06723E0,6.608607E1,9.217395E0,1.6764404E1,1.347893E2,1.0029066E2,8.365428E0,4.9437976E0,3.8788261E0,7.690451E1,9.5395836E1,1.3514811E1,2.9802143E1,2.0705563E1,4.241783E1,2.6088888E1,2.204467E1,1.2737037E1,2.428398E1,1.9195812E1,2.0222649E1,1.5253784E1,1.377127E1,1.0010177E1,8.24222E0,3.2777698E0,1.1662979E1,1.5340021E1,1.0842683E1,7.081089E0,5.9411535E0,8.533595E0,1.0009118E1,7.267898E0],"categories":[],"categories_nodes":[],"categories_segments":[],"categories_sizes":[],"default_left":[true,false,true,false,true,true,true,false,true,true,true,false,true,false,false,false,true,false,true,true,true,true,false,false,true,false,true,false,true,true,false,false,true,false,false,true,true,false,false,false,false,false,false,false,false,false,false,false,false,false,false,false,false,false,false,false,false,false,false,false,false,false,false,false,false],"id":8,"left_children":[1,3,5,-1,7,9,11,13,15,17,19,21,23,-1,-1,-1,25,27,29,31,33,35,37,39,41,43,45,47,49,51,53,-1,55,-1,-1,57,59,-1,-1,-1,61,63,-1,-1,-1,-1,-1,-1,-1,-1,-1,-1,-1,-1,-1,-1,-1,-1,-1,-1,-1,-1,-1,-1,-1],"loss_changes":[1.0404384E7,4.202888E6,4.036736E6,0E0,2.277328E6,1.354944E6,3.4252E5,3.13109E5,1.759632E6,1.231412E6,2.2648012E5,2.55172E5,1.63554E5,0E0,0E0,0E0,7.4778E5,7.931E5,5.39874E5,4.4155438E4,8.5907375E4,2.24616E5,2.7824312E4,5.981025E4,5.930575E4,5.19938E5,5.58579E5,4.344295E5,4.03384E5,2.31418E5,1.718165E5,0E0,4.417247E4,0E0,0E0,1.24057E5,8.075575E4,0E0,0E0,0E0,6.936525E4,1.7452E4,0E0,0E0,0E0,0E0,0E0,0E0,0E0,0E0,0E0,0E0,0E0,0E0,0E0,0E0,0E0,0E0,0E0,0E0,0E0,0E0,0E0,0E0,0E0],"parents":[2147483647,0,0,1,1,2,2,4,4,5,5,6,6,7,7,8,8,9,9,10,10,11,11,12,12,16,16,17,17,18,18,19,19,20,20,21,21,22,22,23,23,24,24,25,25,26,26,27,27,28,28,29,29,30,30,32,32,35,35,36,36,40,40,41,41],"right_children":[2,4,6,-1,8,10,12,14,16,18,20,22,24,-1,-1,-1,26,28,30,32,34,36,38,40,42,44,46,48,50,52,54,-1,56,-1,-1,58,60,-1,-1,-1,62,64,-1,-1,-1,-1,-1,-1,-1,-1,-1,-1,-1,-1,-1,-1,-1,-1,-1,-1,-1,-1,-1,-1,-1],"split_conditions":[1.7E1,6.3076925E0,1.415E0,5.035283E1,2.3445811E0,3.0833333E0,1.09549774E2,1.8181819E0,2.007774E1,2.9714285E1,5.778249E0,1.5454545E0,2.7272728E-1,1.6235003E1,5.979669E0,4.0978275E1,4.8377256E0,5.067956E0,1.0076923E1,3.7019372E0,5.7894737E-1,1.5125E0,2.3157895E0,6.1775875E0,7.407407E-1,2.29823E1,7.5E-1,6.7E-1,2.2E1,1.3083333E0,3.7E1,2.06723E0,1.5E0,9.217395E0,1.6764404E1,2.0895523E-1,1.67E0,8.365428E0,4.9437976E0,3.8788261E0,1.1764706E-1,7.4E0,1.3514811E1,2.9802143E1,2.0705563E1,4.241783E1,2.6088888E1,2.204467E1,1.2737037E1,2.428398E1,1.9195812E1,2.0222649E1,1.5253784E1,1.377127E1,1.0010177E1,8.24222E0,3.2777698E0,1.1662979E1,1.5340021E1,1.0842683E1,7.081089E0,5.9411535E0,8.533595E0,1.0009118E1,7.267898E0],"split_indices":[109,109,111,0,0,115,105,115,105,109,0,115,1,0,0,0,0,0,106,0,9,111,115,0,1,105,110,112,109,111,109,0,117,0,0,118,111,0,0,0,118,116,0,0,0,0,0,0,0,0,0,0,0,0,0,0,0,0,0,0,0,0,0,0,0],"split_type":[0,0,0,0,0,0,0,0,0,0,0,0,0,0,0,0,0,0,0,0,0,0,0,0,0,0,0,0,0,0,0,0,0,0,0,0,0,0,0,0,0,0,0,0,0,0,0,0,0,0,0,0,0,0,0,0,0,0,0,0,0,0,0,0,0],"sum_hessian":[5.175E3,8.13E2,4.362E3,6.4E1,7.49E2,2.495E3,1.867E3,1.25E2,6.24E2,2.291E3,2.04E2,9.42E2,9.25E2,6.2E1,6.3E1,7.1E1,5.53E2,1.168E3,1.123E3,1.3E2,7.4E1,8.12E2,1.3E2,5.92E2,3.33E2,4.56E2,9.7E1,3.23E2,8.45E2,5.9E2,5.33E2,3.4E1,9.6E1,4.2E1,3.2E1,4.23E2,3.89E2,7.3E1,5.7E1,5.3E1,5.39E2,2.77E2,5.6E1,8.1E1,3.75E2,3.6E1,6.1E1,6.6E1,2.57E2,2.29E2,6.16E2,1.33E2,4.57E2,2.68E2,2.65E2,6.3E1,3.3E1,2.16E2,2.07E2,3.03E2,8.6E1,1.78E2,3.61E2,2.27E2,5E1],"tree_param":{"num_deleted":"0","num_feature":"129","num_nodes":"65","size_leaf_vector":"0"}},{"base_weights":[1.3673114E2,1.7457915E2,9.5018715E1,1.5582144E2,2.692464E2,1.0996554E2,7.613996E1,1.2719736E2,1.7360632E2,5.783273E1,2.4245952E2,1.169406E2,6.8079025E1,8.586712E1,6.0471558E1,1.3631595E2,6.878704E1,1.4900154E2,2.0785098E2,2.9710123E2,1.6692944E2,8.766319E1,1.2222068E2,5.087191E1,9.7697235E1,7.8482666E1,1.054993E2,4.764114E1,6.905287E1,1.5748036E2,1.0131327E2,9.155037E1,4.2399516E0,9.997192E1,1.6173364E2,2.2274013E2,1.7271417E2,3.3524857E2,2.0044203E1,1.4332167E2,2.0429136E1,1.1044606E1,6.5582405E1,1.2688049E2,9.426114E1,3.1728048E0,5.73239E1,1.2243301E1,6.954799E0,8.216098E1,5.209046E0,9.477691E0,1.2142756E1,4.1767044E1,6.043554E0,8.035052E0,5.7199674E0,1.9610853E1,1.2867793E1,1.5920138E1,8.944399E0,1.0907894E1,7.1198297E0,1.0869528E1,5.8318048E0,1.2720736E1,1.7704254E1,2.0044004E1,2.4957949E1,2.1541204E1,1.5582202E1,3.732446E1,2.8915207E1,1.6689837E1,1.0251155E1,5.2914896E0,8.055912E0,1.3054257E1,8.813397E0,8.318832E0,1.0735443E1,4.1988196E0,6.6646743E0,8.482725E0,4.656173E0,2.1208003E0,4.7933674E0],"categories":[],"categories_nodes":[],"categories_segments":[],"categories_sizes":[],"default_left":[true,true,true,true,true,true,false,false,true,false,true,true,true,true,true,true,false,true,true,false,true,false,true,false,true,true,true,false,true,true,true,true,false,false,true,true,true,true,false,true,false,false,true,true,true,false,true,false,false,true,false,false,false,true,false,false,false,false,false,false,false,false,false,false,false,false,false,false,false,false,false,false,false,false,false,false,false,false,false,false,false,false,false,false,false,false,false],"id":9,"left_children":[1,3,5,7,9,11,13,15,17,-1,19,21,23,25,27,29,31,33,35,37,39,41,43,45,47,49,51,53,55,57,59,61,-1,63,65,67,69,71,-1,73,-1,-1,75,77,79,-1,81,-1,-1,83,-1,-1,-1,85,-1,-1,-1,-1,-1,-1,-1,-1,-1,-1,-1,-1,-1,-1,-1,-1,-1,-1,-1,-1,-1,-1,-1,-1,-1,-1,-1,-1,-1,-1,-1,-1,-1],"loss_changes":[8.261584E6,4.851752E6,6.91288E5,1.147276E6,3.70135E6,3.93444E5,1.581685E5,4.5488E5,1.166432E6,0E0,1.692644E6,1.69421E5,9.1529E4,8.5558E4,3.8734875E4,5.45641E5,6.2703688E4,4.96062E5,2.80982E5,8.54826E5,1.309045E5,8.024175E4,1.15719E5,9.5764375E3,3.66945E4,3.87535E4,1.6120125E4,5.9229062E3,2.4117625E4,5.03518E5,1.8047675E5,9.855375E3,0E0,5.0443875E4,3.2385E5,2.15688E5,1.016765E5,2.56638E5,0E0,8.601775E4,0E0,0E0,8.68E3,1.06862E5,7.829125E3,0E0,5.692E3,0E0,0E0,3.1902E4,0E0,0E0,0E0,1.0754031E4,0E0,0E0,0E0,0E0,0E0,0E0,0E0,0E0,0E0,0E0,0E0,0E0,0E0,0E0,0E0,0E0,0E0,0E0,0E0,0E0,0E0,0E0,0E0,0E0,0E0,0E0,0E0,0E0,0E0,0E0,0E0,0E0,0E0],"parents":[2147483647,0,0,1,1,2,2,3,3,4,4,5,5,6,6,7,7,8,8,10,10,11,11,12,12,13,13,14,14,15,15,16,16,17,17,18,18,19,19,20,20,21,21,22,22,23,23,24,24,25,25,26,26,27,27,28,28,29,29,30,30,31,31,33,33,34,34,35,35,36,36,37,37,39,39,42,42,43,43,44,44,46,46,49,49,53,53],"right_children":[2,4,6,8,10,12,14,16,18,-1,20,22,24,26,28,30,32,34,36,38,40,42,44,46,48,50,52,54,56,58,60,62,-1,64,66,68,70,72,-1,74,-1,-1,76,78,80,-1,82,-1,-1,84,-1,-1,-1,86,-1,-1,-1,-1,-1,-1,-1,-1,-1,-1,-1,-1,-1,-1,-1,-1,-1,-1,-1,-1,-1,-1,-1,-1,-1,-1,-1,-1,-1,-1,-1,-1,-1],"split_conditions":[1.3666667E0,4.1509435E-1,1.5125E0,1.5789473E-1,4E0,1.125E1,1.64E0,3.375E0,2.5203252E-1,5.783273E1,1.15E0,1.15384616E-1,6.703297E-1,2.3255815E-1,1.8095238E0,1.1625E0,1.525E1,6.318378E0,9.5E-1,1.22E0,1.07E1,8.7E0,5.7E1,1.04166664E-1,2.5E-1,1.0818182E1,9.259259E-2,1E-1,5.571429E0,1.15E0,1.804E0,5.882353E-2,4.2399516E0,6.984829E1,1.4634146E-1,3.137255E-1,3.7565605E1,8E-1,2.0044203E1,3.391025E1,2.0429136E1,1.1044606E1,5.294118E-1,1.6E0,1.76E0,3.1728048E0,4.12E1,1.2243301E1,6.954799E0,4E-1,5.209046E0,9.477691E0,1.2142756E1,8.333333E-3,6.043554E0,8.035052E0,5.7199674E0,1.9610853E1,1.2867793E1,1.5920138E1,8.944399E0,1.0907894E1,7.1198297E0,1.0869528E1,5.8318048E0,1.2720736E1,1.7704254E1,2.0044004E1,2.4957949E1,2.1541204E1,1.5582202E1,3.732446E1,2.8915207E1,1.6689837E1,1.0251155E1,5.2914896E0,8.055912E0,1.3054257E1,8.813397E0,8.318832E0,1.0735443E1,4.1988196E0,6.6646743E0,8.482725E0,4.656173E0,2.1208003E0,4.7933674E0],"split_indices":[111,118,111,1,108,106,111,115,118,0,110,118,120,118,114,111,106,0,110,111,106,106,108,118,112,106,119,48,107,110,113,117,0,105,118,118,105,110,0,105,0,0,1,115,114,0,109,0,0,81,0,0,0,119,0,0,0,0,0,0,0,0,0,0,0,0,0,0,0,0,0,0,0,0,0,0,0,0,0,0,0,0,0,0,0,0,0],"split_type":[0,0,0,0,0,0,0,0,0,0,0,0,0,0,0,0,0,0,0,0,0,0,0,0,0,0,0,0,0,0,0,0,0,0,0,0,0,0,0,0,0,0,0,0,0,0,0,0,0,0,0,0,0,0,0,0,0,0,0,0,0,0,0,0,0,0,0,0,0,0,0,0,0,0,0,0,0,0,0,0,0,0,0,0,0,0,0],"sum_hessian":[5.245E3,2.749E3,2.496E3,2.295E3,4.54E2,1.391E3,1.105E3,8.81E2,1.414E3,3.6E1,4.18E2,1.191E3,2E2,6.79E2,4.26E2,7.61E2,1.2E2,8.24E2,5.9E2,2.42E2,1.76E2,1.84E2,1.007E3,1.28E2,7.2E1,4.96E2,1.83E2,1.74E2,2.52E2,4.73E2,2.88E2,6.3E1,5.7E1,1.71E2,6.53E2,4.13E2,1.77E2,1.73E2,6.9E1,1.09E2,6.7E1,8.9E1,9.5E1,8.61E2,1.46E2,3.5E1,9.3E1,3.7E1,3.5E1,4.33E2,6.3E1,1.12E2,7.1E1,1.23E2,5.1E1,1.26E2,1.26E2,2.01E2,2.72E2,4.8E1,2.4E2,3.2E1,3.1E1,1.4E2,3.1E1,2.02E2,4.51E2,2.27E2,1.86E2,4.9E1,1.28E2,9.4E1,7.9E1,6.8E1,4.1E1,5.4E1,4.1E1,7.85E2,7.6E1,8.2E1,6.4E1,3.8E1,5.5E1,4.01E2,3.2E1,3.1E1,9.2E1],"tree_param":{"num_deleted":"0","num_feature":"129","num_nodes":"87","size_leaf_vector":"0"}},{"base_weights":[1.2478923E2,2.405E2,1.1109869E2,2.1794751E2,4.7103996E1,1.361349E2,8.479262E1,2.383901E2,1.2051443E2,1.4483562E2,8.367511E1,1.0230875E2,6.850342E1,4.559795E1,2.1633086E2,1.3745453E1,1.0029432E1,1.7252608E2,1.272228E2,6.1095108E1,1.4080719E2,1.1328981E2,7.631658E1,7.648179E1,5.3858578E1,1.1065451E1,2.3410855E2,1.4917574E2,2.074783E2,1.4834671E2,1.0959452E2,-5.0005907E-1,7.313119E1,1.8343353E1,1.0339259E1,1.0018931E2,1.3756761E2,1.155684E2,6.440399E1,8.036798E1,3.7564407E1,5.785527E1,2.2087762E0,3.125298E1,2.0625341E1,2.1018448E1,1.3206931E1,2.3147308E1,1.6621597E1,1.6306143E1,1.2737625E1,1.4566318E1,9.515675E0,8.320493E0,5.4581084E0,1.060589E1,7.9598083E0,1.5238174E1,1.2392973E1,1.3829886E1,8.759073E0,7.0682487E0,3.613126E0,8.788332E0,6.7103286E0,2.6022792E0,4.806558E0,6.037395E0,3.5200193E0],"categories":[],"categories_nodes":[],"categories_segments":[],"categories_sizes":[],"default_left":[true,true,true,true,false,true,true,true,true,true,true,true,true,false,true,false,false,false,true,false,true,true,true,true,true,false,true,true,true,true,true,false,true,false,false,true,false,false,true,true,true,false,false,false,false,false,false,false,false,false,false,false,false,false,false,false,false,false,false,false,false,false,false,false,false,false,false,false,false],"id":10,"left_children":[1,3,5,7,-1,9,11,13,15,17,19,21,23,-1,25,-1,-1,27,29,31,33,35,37,39,41,-1,43,45,47,49,51,-1,53,-1,-1,55,57,59,61,63,65,67,-1,-1,-1,-1,-1,-1,-1,-1,-1,-1,-1,-1,-1,-1,-1,-1,-1,-1,-1,-1,-1,-1,-1,-1,-1,-1,-1],"loss_changes":[8.263632E6,2.826958E6,3.066144E6,9.78736E5,0E0,1.077628E6,6.39438E5,1.949678E6,1.350025E4,9.80768E5,4.270615E5,3.00121E5,1.293345E5,0E0,6.8601E5,0E0,0E0,6.25502E5,4.50022E5,2.0047025E5,1.330275E5,2.28256E5,1.4077175E5,1.072925E5,4.786175E4,0E0,6.69258E5,4.75947E5,2.87007E5,1.55556E5,3.40899E5,0E0,2.94105E4,0E0,0E0,4.7677E4,3.48035E4,3.1883562E4,3.7433125E4,5.82355E4,3.4190547E3,1.45365E4,0E0,0E0,0E0,0E0,0E0,0E0,0E0,0E0,0E0,0E0,0E0,0E0,0E0,0E0,0E0,0E0,0E0,0E0,0E0,0E0,0E0,0E0,0E0,0E0,0E0,0E0,0E0],"parents":[2147483647,0,0,1,1,2,2,3,3,5,5,6,6,7,7,8,8,9,9,10,10,11,11,12,12,14,14,17,17,18,18,19,19,20,20,21,21,22,22,23,23,24,24,26,26,27,27,28,28,29,29,30,30,32,32,35,35,36,36,37,37,38,38,39,39,40,40,41,41],"right_children":[2,4,6,8,-1,10,12,14,16,18,20,22,24,-1,26,-1,-1,28,30,32,34,36,38,40,42,-1,44,46,48,50,52,-1,54,-1,-1,56,58,60,62,64,66,68,-1,-1,-1,-1,-1,-1,-1,-1,-1,-1,-1,-1,-1,-1,-1,-1,-1,-1,-1,-1,-1,-1,-1,-1,-1,-1,-1],"split_conditions":[3.0013317E1,2.5E-1,1.3777778E0,1.2071428E0,4.7103996E1,2.857143E0,1.5E0,6.55E-1,1.1947369E1,5.445262E1,5.7894737E-1,1.8842857E0,1.65E0,4.559795E1,7.625E-1,1.3745453E1,1.0029432E1,5.6473503E0,1.0076923E1,3.1024454E0,1E0,2.3255815E-1,8.7E0,1.945E0,1.875E0,1.1065451E1,1.1E1,6.8E-1,3.5555556E0,9E-1,2.3529413E0,-5.0005907E-1,6E1,1.8343353E1,1.0339259E1,9.9E-1,6.282164E1,3.5E-1,2.7692308E0,1.22271E2,1.06086855E1,9.375E0,2.2087762E0,3.125298E1,2.0625341E1,2.1018448E1,1.3206931E1,2.3147308E1,1.6621597E1,1.6306143E1,1.2737625E1,1.4566318E1,9.515675E0,8.320493E0,5.4581084E0,1.060589E1,7.9598083E0,1.5238174E1,1.2392973E1,1.3829886E1,8.759073E0,7.0682487E0,3.613126E0,8.788332E0,6.7103286E0,2.6022792E0,4.806558E0,6.037395E0,3.5200193E0],"split_indices":[105,6,111,111,0,115,111,112,109,105,9,113,111,0,111,0,0,0,106,0,110,118,106,113,111,0,108,112,116,112,116,0,108,0,0,112,105,110,115,105,0,106,0,0,0,0,0,0,0,0,0,0,0,0,0,0,0,0,0,0,0,0,0,0,0,0,0,0,0],"split_type":[0,0,0,0,0,0,0,0,0,0,0,0,0,0,0,0,0,0,0,0,0,0,0,0,0,0,0,0,0,0,0,0,0,0,0,0,0,0,0,0,0,0,0,0,0,0,0,0,0,0,0,0,0,0,0,0,0,0,0,0,0,0,0,0,0,0,0,0,0],"sum_hessian":[5.232E3,5.53E2,4.679E3,5.04E2,4.9E1,2.396E3,2.283E3,4.16E2,8.8E1,2.054E3,3.42E2,1.098E3,1.185E3,3.8E1,3.78E2,4.6E1,4.2E1,7.97E2,1.257E3,2.46E2,9.6E1,7.7E2,3.28E2,7.64E2,4.21E2,5.5E1,3.23E2,4.79E2,3.18E2,5.7E2,6.87E2,3.7E1,2.09E2,4.4E1,5.2E1,5.02E2,2.68E2,7.5E1,2.53E2,6.93E2,7.1E1,3.72E2,4.9E1,8.4E1,2.39E2,1.04E2,3.75E2,2E2,1.18E2,3.33E2,2.37E2,1.95E2,4.92E2,1.33E2,7.6E1,3.88E2,1.14E2,1.26E2,1.42E2,4E1,3.5E1,2.05E2,4.8E1,4.39E2,2.54E2,3.7E1,3.4E1,3.32E2,4E1],"tree_param":{"num_deleted":"0","num_feature":"129","num_nodes":"69","size_leaf_vector":"0"}},{"base_weights":[1.118613E2,1.8544347E2,9.7269806E1,9.1842E1,2.1118073E2,1.21707756E2,7.883034E1,1.4246077E2,3.826156E1,1.7381158E2,3.0070352E2,9.60342E1,1.5002823E2,6.2296936E1,9.623003E1,1.9257257E1,5.312304E0,-3.5452497E0,8.268015E0,1.1217752E2,1.9572551E2,5.7809704E1,2.5133997E2,7.406082E1,1.1876937E2,1.8545404E2,1.370886E2,4.1245632E1,7.054088E1,1.2203841E2,8.513477E1,1.6689602E1,6.662103E0,2.8606092E1,1.7742113E2,3.107839E2,1.7327759E2,9.4024734E1,5.737573E1,7.551717E1,1.3542352E2,2.1721643E2,1.508734E1,1.298143E2,1.7991222E2,4.5773163E1,6.7272246E-1,2.5707364E0,7.281784E1,1.3463257E2,5.956363E0,9.102926E1,7.013583E1,1.8679089E1,1.1019427E1,3.7479534E1,2.302581E1,2.265376E1,1.3537303E1,5.3170524E0,1.0630133E1,6.226079E0,1.6352354E0,9.651229E0,5.5310383E0,8.08303E0,1.4886985E1,2.5778425E1,1.7617392E1,1.4204574E1,9.910563E0,1.9946539E1,1.4495117E1,5.2338486E0,3.6607301E0,8.016594E0,5.9333935E0,1.8332855E1,1.2735815E1,8.080522E0,1.1174212E1,5.7281055E0,8.594055E0],"categories":[],"categories_nodes":[],"categories_segments":[],"categories_sizes":[],"default_left":[true,false,true,true,false,false,true,true,true,true,true,true,true,true,true,false,false,false,false,false,false,false,true,false,false,true,true,false,true,true,true,false,false,false,false,true,true,true,false,true,true,true,false,true,true,false,false,false,true,true,false,true,false,false,false,false,false,false,false,false,false,false,false,false,false,false,false,false,false,false,false,false,false,false,false,false,false,false,false,false,false,false,false],"id":11,"left_children":[1,3,5,7,9,11,13,15,17,19,21,23,25,27,29,-1,-1,-1,-1,31,33,-1,35,37,39,41,43,45,47,49,51,-1,-1,-1,53,55,57,59,61,63,65,67,-1,69,71,73,-1,-1,75,77,-1,79,81,-1,-1,-1,-1,-1,-1,-1,-1,-1,-1,-1,-1,-1,-1,-1,-1,-1,-1,-1,-1,-1,-1,-1,-1,-1,-1,-1,-1,-1,-1],"loss_changes":[5.623444E6,2.07225E6,1.962848E6,4.9723838E5,2.244994E6,1.353336E6,7.08669E5,4.1258138E5,3.0453916E5,6.28106E5,2.680568E6,4.81075E5,3.87688E5,2.15181E5,3.33986E5,0E0,0E0,0E0,0E0,3.0023712E5,5.52907E5,0E0,7.54972E5,1.5761725E5,3.34594E5,2.35644E5,1.82982E5,5.3212E4,8.71225E4,2.728075E5,6.4133E4,0E0,0E0,0E0,1.65032E5,4.52486E5,1.24057E5,1.031905E5,5.0008375E4,4.7069625E4,2.40114E5,1.744185E5,0E0,1.94589E5,4.014925E4,1.30304375E4,0E0,0E0,7.6931E4,8.52305E4,0E0,1.15489E5,3.9547E4,0E0,0E0,0E0,0E0,0E0,0E0,0E0,0E0,0E0,0E0,0E0,0E0,0E0,0E0,0E0,0E0,0E0,0E0,0E0,0E0,0E0,0E0,0E0,0E0,0E0,0E0,0E0,0E0,0E0,0E0],"parents":[2147483647,0,0,1,1,2,2,3,3,4,4,5,5,6,6,7,7,8,8,9,9,10,10,11,11,12,12,13,13,14,14,19,19,20,20,22,22,23,23,24,24,25,25,26,26,27,27,28,28,29,29,30,30,34,34,35,35,36,36,37,37,38,38,39,39,40,40,41,41,43,43,44,44,45,45,48,48,49,49,51,51,52,52],"right_children":[2,4,6,8,10,12,14,16,18,20,22,24,26,28,30,-1,-1,-1,-1,32,34,-1,36,38,40,42,44,46,48,50,52,-1,-1,-1,54,56,58,60,62,64,66,68,-1,70,72,74,-1,-1,76,78,-1,80,82,-1,-1,-1,-1,-1,-1,-1,-1,-1,-1,-1,-1,-1,-1,-1,-1,-1,-1,-1,-1,-1,-1,-1,-1,-1,-1,-1,-1,-1,-1],"split_conditions":[3.7987946E1,2.411989E0,7.477001E1,1.375E0,4.375E-1,6.121655E0,2.9166666E-1,1.42E0,2.0237627E0,3.3383617E0,7.142857E0,2.9268292E-1,2.4076923E1,1.3265306E-1,1.3666667E0,1.9257257E1,5.312304E0,-3.5452497E0,8.268015E0,1.5E1,1.7E1,5.7809704E1,9.5E-1,3.1E1,8.3333336E-2,9E-1,3.5897437E-1,2.3433332E0,4.071102E0,3E-1,9.375E0,1.6689602E1,6.662103E0,2.8606092E1,4.2E1,1.125E1,2E1,3.8153057E0,3.0666666E0,1.35E0,3.0769232E-1,5.925926E-1,1.508734E1,1.125E1,1E0,1.597605E2,6.7272246E-1,2.5707364E0,1.11345E2,1.1875E0,5.956363E0,7E-1,1.3821138E-1,1.8679089E1,1.1019427E1,3.7479534E1,2.302581E1,2.265376E1,1.3537303E1,5.3170524E0,1.0630133E1,6.226079E0,1.6352354E0,9.651229E0,5.5310383E0,8.08303E0,1.4886985E1,2.5778425E1,1.7617392E1,1.4204574E1,9.910563E0,1.9946539E1,1.4495117E1,5.2338486E0,3.6607301E0,8.016594E0,5.9333935E0,1.8332855E1,1.2735815E1,8.080522E0,1.1174212E1,5.7281055E0,8.594055E0],"split_indices":[105,0,105,115,118,0,1,111,0,0,109,118,109,118,111,0,0,0,0,108,108,0,110,108,120,110,121,113,0,79,106,0,0,0,108,109,108,0,113,110,115,120,0,106,110,105,0,0,105,111,0,1,118,0,0,0,0,0,0,0,0,0,0,0,0,0,0,0,0,0,0,0,0,0,0,0,0,0,0,0,0,0,0],"split_type":[0,0,0,0,0,0,0,0,0,0,0,0,0,0,0,0,0,0,0,0,0,0,0,0,0,0,0,0,0,0,0,0,0,0,0,0,0,0,0,0,0,0,0,0,0,0,0,0,0,0,0,0,0,0,0,0,0,0,0,0,0,0,0,0,0,0,0,0,0,0,0,0,0,0,0,0,0,0,0,0,0,0,0],"sum_hessian":[5.256E3,8.69E2,4.387E3,1.88E2,6.81E2,1.885E3,2.502E3,9.6E1,9.2E1,4.81E2,2E2,9.9E2,8.95E2,1.285E3,1.217E3,6.1E1,3.5E1,3.4E1,5.8E1,1.27E2,3.54E2,3E1,1.7E2,5.05E2,4.85E2,2.38E2,6.57E2,3.64E2,9.21E2,3.64E2,8.53E2,5.7E1,7E1,5.9E1,2.95E2,9.6E1,7.4E1,2.28E2,2.77E2,1.36E2,3.49E2,1.23E2,1.15E2,5.63E2,9.4E1,3.2E2,4.4E1,4.6E1,8.75E2,3.02E2,6.2E1,6.09E2,2.44E2,2.58E2,3.7E1,5.3E1,4.3E1,3E1,4.4E1,5.4E1,1.74E2,2.46E2,3.1E1,6.5E1,7.1E1,7E1,2.79E2,6.1E1,6.2E1,4.01E2,1.62E2,5.9E1,3.5E1,1.82E2,1.38E2,5.63E2,3.12E2,3.8E1,2.64E2,4.1E2,1.99E2,1.37E2,1.07E2],"tree_param":{"num_deleted":"0","num_feature":"129","num_nodes":"83","size_leaf_vector":"0"}},{"base_weights":[1.0039054E2,1.7153197E2,8.7448746E1,1.6030011E2,3.5655666E1,1.06160255E2,6.395301E1,1.11869225E2,1.9876616E2,1.2258484E2,8.6315544E1,7.192004E1,4.9996525E1,1.2352576E2,1.7695093E0,1.4343744E2,2.4236024E2,9.77616E1,1.4537222E2,1.0102261E2,5.1424225E1,6.9286E1,1.0976522E2,4.1669434E1,6.4612144E1,1.6081802E2,8.933087E1,1.12594444E2,1.7695944E1,1.341088E1,2.6464755E2,5.084772E1,1.0394374E2,1.5057506E2,5.712499E0,6.516987E1,1.1663375E2,6.1444153E1,2.378837E1,6.016972E1,7.853309E1,1.2199171E1,8.818142E0,4.450287E1,2.0677319E0,5.5613773E1,8.189956E1,2.1208197E1,1.1596841E1,1.9771054E0,1.1002272E1,1.3387141E1,7.659721E0,2.3226309E1,3.658238E1,6.9990997E0,2.4578283E0,9.0590515E0,1.3049262E1,1.7510233E1,1.3415074E1,1.2789072E1,5.308419E0,1.27965355E1,7.994208E0,7.6526313E0,5.3234096E0,3.8924294E0,1.2608495E0,4.4936233E0,6.9823413E0,9.470302E0,7.272962E0,9.410353E-1,4.7427745E0,3.3379076E0,5.9974875E0,9.352042E0,6.805867E0],"categories":[],"categories_nodes":[],"categories_segments":[],"categories_sizes":[],"default_left":[true,false,true,true,false,true,true,true,false,true,true,true,true,false,false,true,true,true,true,true,true,true,false,true,true,false,true,true,false,false,true,true,true,true,false,false,true,false,true,true,true,false,false,true,false,true,true,false,false,false,false,false,false,false,false,false,false,false,false,false,false,false,false,false,false,false,false,false,false,false,false,false,false,false,false,false,false,false,false],"id":12,"left_children":[1,3,5,7,-1,9,11,13,15,17,19,21,23,25,-1,27,29,31,33,35,37,39,41,43,45,47,49,51,-1,-1,53,55,57,59,-1,61,63,65,67,69,71,-1,-1,73,-1,75,77,-1,-1,-1,-1,-1,-1,-1,-1,-1,-1,-1,-1,-1,-1,-1,-1,-1,-1,-1,-1,-1,-1,-1,-1,-1,-1,-1,-1,-1,-1,-1,-1],"loss_changes":[4.832108E6,1.64714E6,1.948008E6,1.401546E6,0E0,7.93712E5,2.114025E5,3.6225E5,9.98098E5,7.49446E5,5.666215E5,1.12671E5,8.043175E4,3.663265E5,0E0,1.74108E5,5.43881E5,1.776835E5,3.09152E5,4.294385E5,8.679831E4,8.94265E4,6.3994375E3,2.2976562E4,3.066375E4,3.0581775E5,2.1832725E5,6.10925E4,0E0,0E0,6.00335E5,3.2102156E4,1.8766E5,2.46244E5,0E0,1.7001556E5,2.137075E5,2.1130188E4,1.179152E4,7.961425E4,4.270775E4,0E0,0E0,3.7591E4,0E0,1.0240625E4,2.5219375E3,0E0,0E0,0E0,0E0,0E0,0E0,0E0,0E0,0E0,0E0,0E0,0E0,0E0,0E0,0E0,0E0,0E0,0E0,0E0,0E0,0E0,0E0,0E0,0E0,0E0,0E0,0E0,0E0,0E0,0E0,0E0,0E0],"parents":[2147483647,0,0,1,1,2,2,3,3,5,5,6,6,7,7,8,8,9,9,10,10,11,11,12,12,13,13,15,15,16,16,17,17,18,18,19,19,20,20,21,21,22,22,23,23,24,24,25,25,26,26,27,27,30,30,31,31,32,32,33,33,35,35,36,36,37,37,38,38,39,39,40,40,43,43,45,45,46,46],"right_children":[2,4,6,8,-1,10,12,14,16,18,20,22,24,26,-1,28,30,32,34,36,38,40,42,44,46,48,50,52,-1,-1,54,56,58,60,-1,62,64,66,68,70,72,-1,-1,74,-1,76,78,-1,-1,-1,-1,-1,-1,-1,-1,-1,-1,-1,-1,-1,-1,-1,-1,-1,-1,-1,-1,-1,-1,-1,-1,-1,-1,-1,-1,-1,-1,-1,-1],"split_conditions":[3.675387E1,2E-1,1.4045454E0,3.139862E0,3.5655666E1,1.5454545E0,5.2E1,2.9307692E0,3.4615386E-1,2.0689656E-1,1.2285714E0,2.7272728E-1,2.9166666E-1,1.0166667E1,1.7695093E0,4.354039E0,1.7142857E0,8.571429E-2,1.25E0,5.067956E0,2.272E0,1.8461539E0,7.842294E1,3.3333334E-1,1.6923077E0,2.1585715E0,2.1033082E0,1.4571428E1,1.7695944E1,1.341088E1,4.8979592E-1,2.185E0,1.1314126E1,3.7209303E0,5.712499E0,2.1675E0,7.1E1,2.0125E0,1.2785715E0,2.0512821E-1,7.43658E1,1.2199171E1,8.818142E0,6.4360604E0,2.0677319E0,3.3333333E0,6.111111E0,2.1208197E1,1.1596841E1,1.9771054E0,1.1002272E1,1.3387141E1,7.659721E0,2.3226309E1,3.658238E1,6.9990997E0,2.4578283E0,9.0590515E0,1.3049262E1,1.7510233E1,1.3415074E1,1.2789072E1,5.308419E0,1.27965355E1,7.994208E0,7.6526313E0,5.3234096E0,3.8924294E0,1.2608495E0,4.4936233E0,6.9823413E0,9.470302E0,7.272962E0,9.410353E-1,4.7427745E0,3.3379076E0,5.9974875E0,9.352042E0,6.805867E0],"split_indices":[105,6,111,0,0,115,109,113,118,118,111,22,1,109,0,0,114,118,110,0,113,114,105,81,114,113,0,109,0,0,118,113,0,107,0,113,108,113,111,1,105,0,0,0,0,117,106,0,0,0,0,0,0,0,0,0,0,0,0,0,0,0,0,0,0,0,0,0,0,0,0,0,0,0,0,0,0,0,0],"split_type":[0,0,0,0,0,0,0,0,0,0,0,0,0,0,0,0,0,0,0,0,0,0,0,0,0,0,0,0,0,0,0,0,0,0,0,0,0,0,0,0,0,0,0,0,0,0,0,0,0,0,0,0,0,0,0,0,0,0,0,0,0,0,0,0,0,0,0,0,0,0,0,0,0,0,0,0,0,0,0],"sum_hessian":[5.268E3,8.1E2,4.458E3,7.64E2,4.6E1,2.48E3,1.978E3,3.39E2,4.25E2,1.355E3,1.125E3,1.256E3,7.22E2,3.01E2,3.8E1,1.88E2,2.37E2,6.5E2,7.05E2,7.9E2,3.35E2,1.176E3,8E1,4.63E2,2.59E2,1.43E2,1.58E2,9.9E1,8.9E1,4.1E1,1.96E2,7.7E1,5.73E2,6.65E2,4E1,2.41E2,5.49E2,2.44E2,9.1E1,5.96E2,5.8E2,4.9E1,3.1E1,4.05E2,5.8E1,1.73E2,8.6E1,6.6E1,7.7E1,3.7E1,1.21E2,6.1E1,3.8E1,1.49E2,4.7E1,4.3E1,3.4E1,3.83E2,1.9E2,2.65E2,4E2,3.8E1,2.03E2,4.18E2,1.31E2,8.3E1,1.61E2,3.6E1,5.5E1,2.34E2,3.62E2,1.5E2,4.3E2,3.3E1,3.72E2,3.1E1,1.42E2,4.4E1,4.2E1],"tree_param":{"num_deleted":"0","num_feature":"129","num_nodes":"79","size_leaf_vector":"0"}},{"base_weights":[8.9538475E1,1.484729E2,7.754746E1,3.1854918E1,1.3654684E2,8.891549E1,5.3157043E1,8.4031265E1,1.6916862E2,6.970018E1,1.0276333E2,5.0678417E1,9.776398E0,6.825393E1,1.6399904E1,3.145838E1,1.5155327E2,4.8897133E1,8.559251E1,1.3974727E2,9.333315E1,4.5801456E1,8.925109E1,-3.5782788E0,8.574695E1,1.9047063E2,1.2587081E2,6.0621033E1,2.7324509E1,5.9950226E1,1.0055645E2,1.0320069E1,1.4909224E2,8.78509E1,1.4079065E2,4.346107E1,8.074763E0,9.966615E1,4.8020525E0,1.0374291E1,3.6932256E0,2.3203047E1,1.5831851E1,1.8897558E1,1.136536E1,3.8510308E0,7.0030246E0,3.7375093E0,1.1807832E0,7.413856E0,3.04428E0,1.2282498E1,7.7362413E0,1.7515093E1,1.3082173E1,9.548175E0,6.7150836E0,1.8104334E1,1.1453895E1,3.1863415E0,4.984002E0,1.0965625E1,7.2418323E0],"categories":[],"categories_nodes":[],"categories_segments":[],"categories_sizes":[],"default_left":[true,true,true,false,true,true,true,true,true,true,false,true,false,true,false,false,true,false,false,true,true,true,false,false,true,true,true,true,false,false,true,false,true,true,true,true,false,true,false,false,false,false,false,false,false,false,false,false,false,false,false,false,false,false,false,false,false,false,false,false,false,false,false],"id":13,"left_children":[1,3,5,-1,7,9,11,13,15,17,19,21,-1,23,-1,-1,25,27,29,31,33,35,37,-1,39,41,43,45,47,49,51,-1,53,55,57,59,-1,61,-1,-1,-1,-1,-1,-1,-1,-1,-1,-1,-1,-1,-1,-1,-1,-1,-1,-1,-1,-1,-1,-1,-1,-1,-1],"loss_changes":[3.71264E6,1.775396E6,1.20589E6,0E0,1.409333E6,7.83272E5,1.4395625E5,3.874795E5,1.281441E6,4.05169E5,5.88792E5,2.3961375E5,0E0,4.9123512E5,0E0,0E0,4.35623E5,1.3168275E5,2.60815E5,1.02215E5,3.44076E5,8.756925E4,5.2786625E4,0E0,1.9220038E5,2.14534E5,1.92373E5,6.5425875E4,2.6811812E4,1.0278719E5,2.163445E5,0E0,1.10939E5,1.84801E5,1.29361E5,7.6029625E4,0E0,1.8831E4,0E0,0E0,0E0,0E0,0E0,0E0,0E0,0E0,0E0,0E0,0E0,0E0,0E0,0E0,0E0,0E0,0E0,0E0,0E0,0E0,0E0,0E0,0E0,0E0,0E0],"parents":[2147483647,0,0,1,1,2,2,4,4,5,5,6,6,7,7,8,8,9,9,10,10,11,11,13,13,16,16,17,17,18,18,19,19,20,20,21,21,22,22,24,24,25,25,26,26,27,27,28,28,29,29,30,30,32,32,33,33,34,34,35,35,37,37],"right_children":[2,4,6,-1,8,10,12,14,16,18,20,22,-1,24,-1,-1,26,28,30,32,34,36,38,-1,40,42,44,46,48,50,52,-1,54,56,58,60,-1,62,-1,-1,-1,-1,-1,-1,-1,-1,-1,-1,-1,-1,-1,-1,-1,-1,-1,-1,-1,-1,-1,-1,-1,-1,-1],"split_conditions":[3.842807E1,6.3076925E0,1.03165E2,3.1854918E1,3.139862E0,6.121655E0,2.7272728E-1,7.1428575E-2,1.2E1,2.631579E-1,5.8755943E1,7.5E-1,9.776398E0,1.9116151E0,1.6399904E1,3.145838E1,2.1E1,1.44E0,4.322046E0,3.448276E-2,1.05412655E1,1.8181819E-1,9.333333E0,-3.5782788E0,5.263158E-1,1.79E0,9.5E-1,1.7687075E-1,1.2666667E1,1.25E0,3.5E1,1.0320069E1,1.26E0,8.7622635E1,3.2E0,1.1764706E-1,8.074763E0,3.5E-1,4.8020525E0,1.0374291E1,3.6932256E0,2.3203047E1,1.5831851E1,1.8897558E1,1.136536E1,3.8510308E0,7.0030246E0,3.7375093E0,1.1807832E0,7.413856E0,3.04428E0,1.2282498E1,7.7362413E0,1.7515093E1,1.3082173E1,9.548175E0,6.7150836E0,1.8104334E1,1.1453895E1,3.1863415E0,4.984002E0,1.0965625E1,7.2418323E0],"split_indices":[105,109,105,0,0,0,78,15,108,118,105,1,0,0,0,0,108,112,0,119,0,73,106,0,116,112,112,118,106,110,108,0,112,105,116,118,0,110,0,0,0,0,0,0,0,0,0,0,0,0,0,0,0,0,0,0,0,0,0,0,0,0,0],"split_type":[0,0,0,0,0,0,0,0,0,0,0,0,0,0,0,0,0,0,0,0,0,0,0,0,0,0,0,0,0,0,0,0,0,0,0,0,0,0,0,0,0,0,0,0,0,0,0,0,0,0,0,0,0,0,0,0,0,0,0,0,0,0,0],"sum_hessian":[5.276E3,8.91E2,4.385E3,5.8E1,8.33E2,2.989E3,1.396E3,3.2E2,5.13E2,1.254E3,1.735E3,1.324E3,7.2E1,2.68E2,5.2E1,5.5E1,4.58E2,5.45E2,7.09E2,3.51E2,1.384E3,1.177E3,1.47E2,3.8E1,2.3E2,1.81E2,2.77E2,3.51E2,1.94E2,2.63E2,4.46E2,7.3E1,2.78E2,1.242E3,1.42E2,1.105E3,7.2E1,1.16E2,3.1E1,1.67E2,6.3E1,7.8E1,1.03E2,4.4E1,2.33E2,1.07E2,2.44E2,1.15E2,7.9E1,1.76E2,8.7E1,2.26E2,2.2E2,1.13E2,1.65E2,9.05E2,3.37E2,5.5E1,8.7E1,3.96E2,7.09E2,8.3E1,3.3E1],"tree_param":{"num_deleted":"0","num_feature":"129","num_nodes":"63","size_leaf_vector":"0"}},{"base_weights":[8.065018E1,1.0916371E2,5.9227352E1,3.2955032E1,1.0370503E2,5.4358536E1,8.70325E1,8.553347E1,1.3084126E2,3.65623E1,6.0676403E1,6.1635925E1,9.8377174E1,6.440863E1,1.0564251E2,1.6771362E2,9.137495E1,1.3256258E1,4.1510986E1,6.632596E1,3.813199E1,7.3548126E0,3.9032204E0,1.2065728E2,8.633012E1,8.323321E1,4.0961678E1,1.2455037E2,7.615612E1,2.4359286E0,1.8453094E2,5.5750313E1,1.0807833E2,2.0062584E1,-6.80724E-2,4.856818E1,2.8057741E1,7.231324E1,3.975595E1,4.1149174E1,6.4773625E-1,8.319386E0,1.3470932E2,6.950897E1,1.0312354E1,6.2412295E0,1.02202635E1,3.0184715E0,7.0102677E0,8.661432E0,1.4453879E1,9.379395E0,4.0085006E0,2.391515E1,1.572647E1,2.3232641E0,6.622206E0,1.17242775E1,5.8343616E0,7.131421E-1,3.0227277E0,5.682838E0,3.2611167E0,3.6510751E0,1.2879766E0,5.5601187E0,8.036047E0,5.2411094E0,3.3120072E0,4.471184E0,2.8717318E0,1.5254317E1,1.1450159E1,7.8996506E0,5.3053303E0],"categories":[],"categories_nodes":[],"categories_segments":[],"categories_sizes":[],"default_left":[true,true,true,false,true,true,false,true,true,true,true,true,true,true,false,true,false,false,true,true,true,false,false,false,false,true,true,true,false,false,true,true,true,false,false,true,true,true,false,true,false,false,true,true,false,false,false,false,false,false,false,false,false,false,false,false,false,false,false,false,false,false,false,false,false,false,false,false,false,false,false,false,false,false,false],"id":14,"left_children":[1,3,5,-1,7,9,11,13,15,17,19,21,23,25,27,29,31,33,35,37,39,-1,-1,41,43,45,47,49,51,-1,53,55,57,59,-1,61,63,65,67,69,-1,-1,71,73,-1,-1,-1,-1,-1,-1,-1,-1,-1,-1,-1,-1,-1,-1,-1,-1,-1,-1,-1,-1,-1,-1,-1,-1,-1,-1,-1,-1,-1,-1,-1],"loss_changes":[3.189628E6,2.672856E6,3.95425E5,0E0,1.06624E6,2.79901E5,1.167225E5,5.46709E5,1.259544E6,7.355556E4,2.320085E5,2.95465E4,6.737575E4,2.7511325E5,3.606075E5,1.077485E6,2.41429E5,1.2739887E4,4.6949312E4,2.307785E5,3.2863625E4,0E0,0E0,4.002275E4,4.4412625E4,1.28688E5,8.342669E4,2.931985E5,1.585895E5,0E0,5.75416E5,4.0389E4,1.1897675E5,8.425961E3,0E0,4.0926562E4,2.13045E4,1.54824E5,1.7358719E4,1.00959375E4,0E0,0E0,8.3355E3,6.681125E3,0E0,0E0,0E0,0E0,0E0,0E0,0E0,0E0,0E0,0E0,0E0,0E0,0E0,0E0,0E0,0E0,0E0,0E0,0E0,0E0,0E0,0E0,0E0,0E0,0E0,0E0,0E0,0E0,0E0,0E0,0E0],"parents":[2147483647,0,0,1,1,2,2,4,4,5,5,6,6,7,7,8,8,9,9,10,10,11,11,12,12,13,13,14,14,15,15,16,16,17,17,18,18,19,19,20,20,23,23,24,24,25,25,26,26,27,27,28,28,30,30,31,31,32,32,33,33,35,35,36,36,37,37,38,38,39,39,42,42,43,43],"right_children":[2,4,6,-1,8,10,12,14,16,18,20,22,24,26,28,30,32,34,36,38,40,-1,-1,42,44,46,48,50,52,-1,54,56,58,60,-1,62,64,66,68,70,-1,-1,72,74,-1,-1,-1,-1,-1,-1,-1,-1,-1,-1,-1,-1,-1,-1,-1,-1,-1,-1,-1,-1,-1,-1,-1,-1,-1,-1,-1,-1,-1,-1,-1],"split_conditions":[1.315E0,6.3076925E0,7.407407E-1,3.2955032E1,3.137255E-1,1.3333334E-1,1.2E-1,6.473515E0,1.05E0,7.741151E0,1.6125E0,9.545455E0,3.4E-1,3.4E1,9.5E-1,2.3445811E0,1.7857143E0,2.1266668E0,1.6161285E2,1.6E0,1.875E0,7.3548126E0,3.9032204E0,1.6533333E0,1.7925E0,2.361111E-1,5.7894737E-1,1.6363636E-1,3.275E1,2.4359286E0,2.5643269E1,2.5399246E0,1E-1,7.5E0,-6.80724E-2,5.2E1,9.375E0,4E-2,1.0222222E1,5.833333E-1,6.4773625E-1,8.319386E0,4.076923E0,5.25E0,1.0312354E1,6.2412295E0,1.02202635E1,3.0184715E0,7.0102677E0,8.661432E0,1.4453879E1,9.379395E0,4.0085006E0,2.391515E1,1.572647E1,2.3232641E0,6.622206E0,1.17242775E1,5.8343616E0,7.131421E-1,3.0227277E0,5.682838E0,3.2611167E0,3.6510751E0,1.2879766E0,5.5601187E0,8.036047E0,5.2411094E0,3.3120072E0,4.471184E0,2.8717318E0,1.5254317E1,1.1450159E1,7.8996506E0,5.3053303E0],"split_indices":[111,109,1,0,118,118,118,0,110,0,111,106,112,108,110,0,114,113,105,115,111,0,0,113,113,118,9,118,109,0,105,0,57,116,0,108,106,119,106,120,0,0,107,116,0,0,0,0,0,0,0,0,0,0,0,0,0,0,0,0,0,0,0,0,0,0,0,0,0,0,0,0,0,0,0],"split_type":[0,0,0,0,0,0,0,0,0,0,0,0,0,0,0,0,0,0,0,0,0,0,0,0,0,0,0,0,0,0,0,0,0,0,0,0,0,0,0,0,0,0,0,0,0,0,0,0,0,0,0,0,0,0,0,0,0,0,0,0,0,0,0,0,0,0,0,0,0,0,0,0,0,0,0],"sum_hessian":[5.241E3,2.247E3,2.994E3,5.4E1,2.193E3,2.55E3,4.44E2,1.315E3,8.78E2,6.71E2,1.879E3,1.39E2,3.05E2,6.43E2,6.72E2,4.53E2,4.25E2,1.2E2,5.51E2,1.5E3,3.79E2,8.9E1,5E1,1.05E2,2E2,3.55E2,2.88E2,4.08E2,2.64E2,4.8E1,4.05E2,1.37E2,2.88E2,8.4E1,3.6E1,3.58E2,1.93E2,1.222E3,2.78E2,3.44E2,3.5E1,3E1,7.5E1,1.02E2,9.8E1,1.71E2,1.84E2,2.12E2,7.6E1,1.42E2,2.66E2,1.76E2,8.8E1,1.34E2,2.71E2,3.5E1,1.02E2,2.42E2,4.6E1,4E1,4.4E1,2.33E2,1.25E2,1.21E2,7.2E1,4E2,8.22E2,9.2E1,1.86E2,2.63E2,8.1E1,3.8E1,3.7E1,6.2E1,4E1],"tree_param":{"num_deleted":"0","num_feature":"129","num_nodes":"75","size_leaf_vector":"0"}},{"base_weights":[7.282631E1,1.0202002E2,5.6476814E1,9.7554886E1,2.3075235E1,6.535859E1,4.1113052E1,9.476138E1,2.4322306E1,4.1963394E1,7.193903E1,3.9637268E1,7.4954734E0,7.0317924E1,1.1555436E2,7.664774E1,3.2476974E1,7.471527E1,1.2753429E1,4.294461E1,2.6673492E1,2.3011187E1,7.642646E1,1.22915215E2,4.0041298E1,4.9297037E0,9.688758E0,4.385469E-1,3.564112E1,5.714088E1,8.2769806E1,-2.988458E-1,2.6462321E0,4.7025055E1,2.6745777E1,1.7682278E1,2.937157E1,5.5748377E0,-3.3433548E-1,9.547809E0,5.577329E0,1.1304378E1,1.7805494E1,6.20247E0,-0E0,4.498846E0,2.404988E0,8.135816E0,4.6385207E0,7.0557337E0,9.149542E0,4.895683E0,2.267021E0,2.9758506E0,8.646594E-1,1.5184668E-1,3.0255442E0,3.3010082E0,1.791853E0],"categories":[],"categories_nodes":[],"categories_segments":[],"categories_sizes":[],"default_left":[false,true,false,true,false,true,true,true,false,false,true,false,false,true,true,true,true,true,false,true,true,false,true,true,false,false,false,false,true,false,true,false,false,true,false,true,true,false,false,false,false,false,false,false,false,false,false,false,false,false,false,false,false,false,false,false,false,false,false],"id":15,"left_children":[1,3,5,7,-1,9,11,13,-1,15,17,19,-1,21,23,25,27,29,31,33,35,37,39,41,43,-1,-1,-1,45,47,49,-1,-1,51,53,55,57,-1,-1,-1,-1,-1,-1,-1,-1,-1,-1,-1,-1,-1,-1,-1,-1,-1,-1,-1,-1,-1,-1],"loss_changes":[2.510494E6,1.06628E6,4.54865E5,7.21826E5,0E0,3.22098E5,5.410775E4,9.00826E5,0E0,1.479925E5,2.68445E5,4.632025E4,0E0,2.323105E5,5.27759E5,4.51245E4,3.0352438E4,2.15984E5,1.804426E4,5.743125E4,2.6982031E3,8.64946E4,2.774375E5,4.60248E5,7.594795E4,0E0,0E0,0E0,3.1246969E4,1.223365E5,1.049145E5,0E0,0E0,3.041325E4,7.8900625E3,1.057933E4,4.1026562E3,0E0,0E0,0E0,0E0,0E0,0E0,0E0,0E0,0E0,0E0,0E0,0E0,0E0,0E0,0E0,0E0,0E0,0E0,0E0,0E0,0E0,0E0],"parents":[2147483647,0,0,1,1,2,2,3,3,5,5,6,6,7,7,9,9,10,10,11,11,13,13,14,14,15,15,16,16,17,17,18,18,19,19,20,20,21,21,22,22,23,23,24,24,28,28,29,29,30,30,33,33,34,34,35,35,36,36],"right_children":[2,4,6,8,-1,10,12,14,-1,16,18,20,-1,22,24,26,28,30,32,34,36,38,40,42,44,-1,-1,-1,46,48,50,-1,-1,52,54,56,58,-1,-1,-1,-1,-1,-1,-1,-1,-1,-1,-1,-1,-1,-1,-1,-1,-1,-1,-1,-1,-1,-1],"split_conditions":[5.7349304E1,5E-1,1.475E0,3.3333334E-1,2.3075235E1,6.532421E0,3.3333334E-1,1.8888888E0,2.4322306E1,1.0909091E0,1.6666667E-1,1.6875E0,7.4954734E0,2.1428572E-1,2.9307692E0,8.163265E-2,1.5862069E0,1.4634146E-1,2.2222222E-1,7.4E0,5.882353E-2,1.27E0,1.1E0,1.3714286E1,5.416667E-1,4.9297037E0,9.688758E0,4.385469E-1,7.397117E1,8.7E0,8.074741E0,-2.988458E-1,2.6462321E0,1.1111111E-1,1.6878578E2,1.1111111E-1,4.5E-1,5.5748377E0,-3.3433548E-1,9.547809E0,5.577329E0,1.1304378E1,1.7805494E1,6.20247E0,-0E0,4.498846E0,2.404988E0,8.135816E0,4.6385207E0,7.0557337E0,9.149542E0,4.895683E0,2.267021E0,2.9758506E0,8.646594E-1,1.5184668E-1,3.0255442E0,3.3010082E0,1.791853E0],"split_indices":[105,6,111,25,0,0,40,114,0,115,80,111,0,118,113,119,114,118,115,116,117,112,110,106,119,0,0,0,105,106,0,0,0,81,105,115,110,0,0,0,0,0,0,0,0,0,0,0,0,0,0,0,0,0,0,0,0,0,0],"split_type":[0,0,0,0,0,0,0,0,0,0,0,0,0,0,0,0,0,0,0,0,0,0,0,0,0,0,0,0,0,0,0,0,0,0,0,0,0,0,0,0,0,0,0,0,0,0,0,0,0,0,0,0,0,0,0,0,0,0,0],"sum_hessian":[5.283E3,1.895E3,3.388E3,1.832E3,6.3E1,2.144E3,1.244E3,1.798E3,3.4E1,4.73E2,1.671E3,1.194E3,5E1,8.28E2,9.7E2,1E2,3.73E2,1.595E3,7.6E1,9.47E2,2.47E2,9.6E1,7.32E2,8.83E2,8.7E1,4.4E1,5.6E1,4E1,3.33E2,5.04E2,1.091E3,3.3E1,4.3E1,7.53E2,1.94E2,6.3E1,1.84E2,4.4E1,5.2E1,3.79E2,3.53E2,7.5E2,1.33E2,5.6E1,3.1E1,1.81E2,1.52E2,1.53E2,3.51E2,4.58E2,6.33E2,6.95E2,5.8E1,1.63E2,3.1E1,3E1,3.3E1,1.35E2,4.9E1],"tree_param":{"num_deleted":"0","num_feature":"129","num_nodes":"59","size_leaf_vector":"0"}},{"base_weights":[6.687053E1,1.2351004E2,5.8414883E1,6.660507E1,1.573831E2,7.4122856E1,4.416453E1,-6.559266E0,9.068669E1,1.20356316E2,2.3068823E2,7.148095E1,1.663477E1,5.1435326E1,3.2444675E1,1.97122E1,6.549438E1,9.220409E1,1.6258803E2,1.5952686E2,3.3682648E1,1.984664E1,7.526253E1,5.7043667E1,3.4065105E1,3.3783146E1,1.0475737E-1,8.008521E1,4.18535E0,1.4445334E1,6.5007095E0,1.3784251E1,1.9129826E1,2.0275993E1,1.0307456E1,4.411341E0,-6.9593678E0,8.061481E1,3.8722088E1,3.741724E1,6.2732456E1,5.306343E1,2.9637383E1,3.4897594E1,9.721407E-1,6.470196E0,1.1395223E1,-2.9784696E0,1.6531626E0,6.698424E0,9.666471E0,3.092957E0,5.860058E0,5.6552176E0,3.3726833E0,2.9977381E0,6.580274E0,7.952293E0,2.4482722E0,1.9412457E0,4.70722E0,4.1446586E0,3.0535574E0],"categories":[],"categories_nodes":[],"categories_segments":[],"categories_sizes":[],"default_left":[false,false,false,true,true,true,false,false,false,false,true,true,false,false,false,false,false,false,true,false,false,true,true,true,false,true,false,true,false,false,false,false,false,false,false,false,false,true,true,true,true,false,true,true,false,false,false,false,false,false,false,false,false,false,false,false,false,false,false,false,false,false,false],"id":16,"left_children":[1,3,5,7,9,11,13,-1,15,17,19,21,-1,23,25,-1,27,29,31,33,-1,35,37,39,41,43,-1,45,-1,-1,-1,-1,-1,-1,-1,-1,47,49,51,53,55,57,59,61,-1,-1,-1,-1,-1,-1,-1,-1,-1,-1,-1,-1,-1,-1,-1,-1,-1,-1,-1],"loss_changes":[2.513108E6,1.302763E6,1.019165E6,8.167416E5,1.137127E6,5.14752E5,1.994055E5,0E0,5.634704E5,3.2100625E5,1.045326E6,4.07487E5,0E0,1.3809375E5,3.6476062E4,0E0,5.217375E4,2.2975362E5,5.7241E4,1.8848375E5,0E0,9.757308E4,3.77906E5,1.17815E5,2.4914531E4,2.063525E4,0E0,4.3239562E4,0E0,0E0,0E0,0E0,0E0,0E0,0E0,0E0,3.7388605E4,3.65047E5,3.3078375E4,1.1616875E4,8.018575E4,4.263086E4,4.864872E4,1.9071688E4,0E0,0E0,0E0,0E0,0E0,0E0,0E0,0E0,0E0,0E0,0E0,0E0,0E0,0E0,0E0,0E0,0E0,0E0,0E0],"parents":[2147483647,0,0,1,1,2,2,3,3,4,4,5,5,6,6,8,8,9,9,10,10,11,11,13,13,14,14,16,16,17,17,18,18,19,19,21,21,22,22,23,23,24,24,25,25,27,27,36,36,37,37,38,38,39,39,40,40,41,41,42,42,43,43],"right_children":[2,4,6,8,10,12,14,-1,16,18,20,22,-1,24,26,-1,28,30,32,34,-1,36,38,40,42,44,-1,46,-1,-1,-1,-1,-1,-1,-1,-1,48,50,52,54,56,58,60,62,-1,-1,-1,-1,-1,-1,-1,-1,-1,-1,-1,-1,-1,-1,-1,-1,-1,-1,-1],"split_conditions":[1.5333333E1,2.871639E0,1.3714286E0,7.375E-1,4.347826E-1,3.75E-1,1.55E0,-6.559266E0,2.1666667E0,4.071102E0,1.6666666E0,3.8554363E0,1.663477E1,1.125E0,1.875E0,1.97122E1,9.5E-1,2.29823E1,3.529412E-1,9.5E-1,3.3682648E1,2.272E0,7E1,1.1827957E-1,6.414881E1,2.542373E-1,1.0475737E-1,1E0,4.18535E0,1.4445334E1,6.5007095E0,1.3784251E1,1.9129826E1,2.0275993E1,1.0307456E1,4.411341E0,4.347826E-2,2.4489796E-1,5.7894737E-1,4.75E0,5.75E0,1.945E0,7.2303634E0,4.285714E0,9.721407E-1,6.470196E0,1.1395223E1,-2.9784696E0,1.6531626E0,6.698424E0,9.666471E0,3.092957E0,5.860058E0,5.6552176E0,3.3726833E0,2.9977381E0,6.580274E0,7.952293E0,2.4482722E0,1.9412457E0,4.70722E0,4.1446586E0,3.0535574E0],"split_indices":[109,0,111,111,118,6,111,0,107,0,115,0,0,115,111,0,110,105,118,110,0,113,108,118,105,119,0,122,0,0,0,0,0,0,0,0,1,118,9,116,106,113,0,116,0,0,0,0,0,0,0,0,0,0,0,0,0,0,0,0,0,0,0],"split_type":[0,0,0,0,0,0,0,0,0,0,0,0,0,0,0,0,0,0,0,0,0,0,0,0,0,0,0,0,0,0,0,0,0,0,0,0,0,0,0,0,0,0,0,0,0,0,0,0,0,0,0,0,0,0,0,0,0,0,0,0,0,0,0],"sum_hessian":[5.274E3,6.84E2,4.59E3,2.56E2,4.28E2,2.181E3,2.409E3,3.9E1,2.17E2,2.85E2,1.43E2,2.121E3,6E1,1.483E3,9.26E2,4.1E1,1.76E2,1.72E2,1.13E2,8.6E1,5.7E1,1.46E2,1.975E3,1.118E3,3.65E2,8.86E2,4E1,1.07E2,6.9E1,5.8E1,1.14E2,6.2E1,5.1E1,4.8E1,3.8E1,7.8E1,6.8E1,1.721E3,2.54E2,2.54E2,8.64E2,6.6E1,2.99E2,8.44E2,4.2E1,7.5E1,3.2E1,3.6E1,3.2E1,9.33E2,7.88E2,1.85E2,6.9E1,3.8E1,2.16E2,7.6E1,7.88E2,3.3E1,3.3E1,1.91E2,1.08E2,3.31E2,5.13E2],"tree_param":{"num_deleted":"0","num_feature":"129","num_nodes":"63","size_leaf_vector":"0"}},{"base_weights":[5.9023533E1,2.2901231E2,5.6481747E1,6.105739E0,3.951724E1,7.146906E1,3.9660126E1,6.887626E1,1.4972475E2,4.680905E1,3.1547401E1,6.3551907E1,1.0797453E2,1.8391752E1,1.0289213E1,4.9380684E1,2.1870016E1,2.910047E1,5.604981E1,6.8418686E1,2.738961E1,1.5136885E2,7.296335E1,5.4148556E1,3.2963634E1,1.4715581E1,3.4820564E0,3.08751E1,6.1775336E0,3.6952088E0,6.4053016E0,7.0500293E0,-1.647567E0,-4.9388576E0,3.680765E0,1.9736532E1,1.2859972E1,8.893727E0,4.7317863E0,5.222942E0,8.810205E0,5.439116E0,2.4208524E0,-0E0,2.3128526E0,1.6464764E0,3.4025986E0,1.2465289E0,-0E0],"categories":[],"categories_nodes":[],"categories_segments":[],"categories_sizes":[],"default_left":[false,true,true,false,false,true,true,true,true,true,true,false,true,false,false,false,true,true,true,false,true,true,true,true,false,true,false,false,true,false,false,false,false,false,false,false,false,false,false,false,false,false,false,false,false,false,false,false,false],"id":17,"left_children":[1,3,5,-1,-1,7,9,11,13,15,17,19,21,-1,-1,23,25,27,29,31,33,35,37,39,41,43,-1,45,47,-1,-1,-1,-1,-1,-1,-1,-1,-1,-1,-1,-1,-1,-1,-1,-1,-1,-1,-1,-1],"loss_changes":[2.27952E6,2.144841E6,1.314291E6,0E0,0E0,5.46939E5,1.379425E5,5.46522E5,1.20841E5,7.9028E4,6.3768E4,4.09168E5,4.7046825E5,0E0,0E0,8.665725E4,8.114207E3,4.0526875E4,8.6725E3,3.71529E5,2.0303348E5,1.25899E5,6.3381438E4,4.979975E4,4.5150125E4,1.0161162E4,0E0,4.1008312E4,2.5790105E3,0E0,0E0,0E0,0E0,0E0,0E0,0E0,0E0,0E0,0E0,0E0,0E0,0E0,0E0,0E0,0E0,0E0,0E0,0E0,0E0],"parents":[2147483647,0,0,1,1,2,2,5,5,6,6,7,7,8,8,9,9,10,10,11,11,12,12,15,15,16,16,17,17,18,18,19,19,20,20,21,21,22,22,23,23,24,24,25,25,27,27,28,28],"right_children":[2,4,6,-1,-1,8,10,12,14,16,18,20,22,-1,-1,24,26,28,30,32,34,36,38,40,42,44,-1,46,48,-1,-1,-1,-1,-1,-1,-1,-1,-1,-1,-1,-1,-1,-1,-1,-1,-1,-1,-1,-1],"split_conditions":[7.142857E0,1.8571428E0,1.3678571E0,6.105739E0,3.951724E1,3.75E-1,1.03165E2,1.4285715E-1,7.5E-1,1.6166667E0,6.923077E-1,3.1176472E0,2.4076923E1,1.8391752E1,1.0289213E1,1.1666666E0,2.3529412E-1,3.3333334E-1,2.3E1,1E-1,1.26E0,1.16E1,8.59925E1,7.1428575E-2,6.282164E1,8.333333E-3,3.4820564E0,7.0377827E0,3.6363637E-1,3.6952088E0,6.4053016E0,7.0500293E0,-1.647567E0,-4.9388576E0,3.680765E0,1.9736532E1,1.2859972E1,8.893727E0,4.7317863E0,5.222942E0,8.810205E0,5.439116E0,2.4208524E0,-0E0,2.3128526E0,1.6464764E0,3.4025986E0,1.2465289E0,-0E0],"split_indices":[109,114,111,0,0,6,105,15,110,111,1,115,109,0,0,115,121,81,108,48,112,109,105,27,105,119,0,0,120,0,0,0,0,0,0,0,0,0,0,0,0,0,0,0,0,0,0,0,0],"split_type":[0,0,0,0,0,0,0,0,0,0,0,0,0,0,0,0,0,0,0,0,0,0,0,0,0,0,0,0,0,0,0,0,0,0,0,0,0,0,0,0,0,0,0,0,0,0,0,0,0],"sum_hessian":[5.322E3,7.8E1,5.244E3,3.9E1,3.9E1,2.771E3,2.473E3,2.683E3,8.8E1,1.31E3,1.163E3,2.363E3,3.2E2,5E1,3.8E1,1.185E3,1.25E2,1.06E3,1.03E2,2.081E3,2.82E2,1.42E2,1.78E2,9.15E2,2.7E2,8.4E1,4.1E1,9.81E2,7.9E1,3.3E1,7E1,2.032E3,4.9E1,3E1,2.52E2,4.6E1,9.6E1,1.08E2,7E1,8.68E2,4.7E1,7.6E1,1.94E2,3.1E1,5.3E1,1.8E2,8.01E2,3.6E1,4.3E1],"tree_param":{"num_deleted":"0","num_feature":"129","num_nodes":"49","size_leaf_vector":"0"}},{"base_weights":[5.4299686E1,1.3731888E2,4.922192E1,4.16827E1,1.0611872E2,6.949713E1,4.0699844E1,4.234463E1,1.5864717E2,5.922349E1,9.5148705E1,4.9897118E1,3.1656412E1,9.7041E0,-5.384424E-1,1.9856923E2,8.359877E0,2.4404715E1,6.545339E1,1.0678457E2,1.0728052E0,5.8305954E1,2.6434898E1,3.689903E1,2.2190191E1,1.605448E1,2.3837843E1,-2.2859253E-2,3.6238037E1,9.641659E1,5.5928406E1,1.327371E2,8.184552E1,7.5822235E1,4.7456234E1,3.1473997E1,-1.2881986E0,4.828729E1,2.6581594E1,1.9582327E1,6.1044507E0,6.254593E0,2.0801308E0,1.2598495E1,8.407283E0,4.3448167E0,8.432193E0,1.976864E1,1.1201215E1,1.1522832E1,5.4530406E0,7.8141627E0,3.9895713E0,9.497458E-1,4.973046E0,6.3875623E0,2.733854E0,1.363197E-1,-6.979966E-1,4.1238413E0,6.0917573E0,3.1890671E0,1.9951445E0,2.3112488E0,-4.6051326E-1],"categories":[],"categories_nodes":[],"categories_segments":[],"categories_sizes":[],"default_left":[true,true,true,false,true,true,true,false,true,true,false,false,false,false,false,true,false,false,true,true,false,false,false,true,true,false,false,false,true,true,true,true,true,true,false,true,false,true,true,false,false,false,false,false,false,false,false,false,false,false,false,false,false,false,false,false,false,false,false,false,false,false,false,false,false],"id":18,"left_children":[1,3,5,-1,7,9,11,13,15,17,19,21,23,-1,-1,25,-1,27,29,31,-1,33,35,37,39,-1,-1,-1,41,43,45,47,49,51,53,55,57,59,61,63,-1,-1,-1,-1,-1,-1,-1,-1,-1,-1,-1,-1,-1,-1,-1,-1,-1,-1,-1,-1,-1,-1,-1,-1,-1],"loss_changes":[2.194189E6,2.5883235E6,8.44989E5,0E0,8.9376825E5,3.73428E5,2.834905E5,3.275205E5,4.2366925E5,2.1995525E5,3.994315E5,3.33407E5,8.3059875E4,0E0,0E0,1.1739275E5,0E0,4.915967E4,2.4975375E5,2.205715E5,0E0,2.3159E5,6.581594E4,1.270615E5,5.8293312E4,0E0,0E0,0E0,3.8837562E4,6.048275E4,2.309565E5,2.1657575E5,1.5863375E5,3.1818E4,6.3447875E4,4.560528E4,1.4193705E3,4.0212625E4,1.7279844E4,5.192922E4,0E0,0E0,0E0,0E0,0E0,0E0,0E0,0E0,0E0,0E0,0E0,0E0,0E0,0E0,0E0,0E0,0E0,0E0,0E0,0E0,0E0,0E0,0E0,0E0,0E0],"parents":[2147483647,0,0,1,1,2,2,4,4,5,5,6,6,7,7,8,8,9,9,10,10,11,11,12,12,15,15,17,17,18,18,19,19,21,21,22,22,23,23,24,24,28,28,29,29,30,30,31,31,32,32,33,33,34,34,35,35,36,36,37,37,38,38,39,39],"right_children":[2,4,6,-1,8,10,12,14,16,18,20,22,24,-1,-1,26,-1,28,30,32,-1,34,36,38,40,-1,-1,-1,42,44,46,48,50,52,54,56,58,60,62,64,-1,-1,-1,-1,-1,-1,-1,-1,-1,-1,-1,-1,-1,-1,-1,-1,-1,-1,-1,-1,-1,-1,-1,-1,-1],"split_conditions":[1.1E1,3E0,1.2357143E0,4.16827E1,2.4788616E0,2.9166666E-1,9.03142E1,2.008E0,9E-1,1.7272727E0,1.4285715E-1,1.25E0,9.375E0,9.7041E0,-5.384424E-1,4.7058824E-1,8.359877E0,1.88E0,1.0818182E1,1.09E1,1.0728052E0,1.3678571E0,2.3666666E0,1.5375E0,4.6153846E-1,1.605448E1,2.3837843E1,-2.2859253E-2,3.21915E1,1.075E0,1E0,2E1,3.6363637E-1,8.3333336E-2,1.2068965E0,6.3E-1,4.6875E-1,6.923077E-1,1.3817912E2,2.2333333E0,6.1044507E0,6.254593E0,2.0801308E0,1.2598495E1,8.407283E0,4.3448167E0,8.432193E0,1.976864E1,1.1201215E1,1.1522832E1,5.4530406E0,7.8141627E0,3.9895713E0,9.497458E-1,4.973046E0,6.3875623E0,2.733854E0,1.363197E-1,-6.979966E-1,4.1238413E0,6.0917573E0,3.1890671E0,1.9951445E0,2.3112488E0,-4.6051326E-1],"split_indices":[109,108,111,0,0,1,105,113,110,114,30,115,106,0,0,118,0,112,106,106,0,111,113,111,52,0,0,0,105,111,122,108,1,47,114,112,119,1,105,113,0,0,0,0,0,0,0,0,0,0,0,0,0,0,0,0,0,0,0,0,0,0,0,0,0],"split_type":[0,0,0,0,0,0,0,0,0,0,0,0,0,0,0,0,0,0,0,0,0,0,0,0,0,0,0,0,0,0,0,0,0,0,0,0,0,0,0,0,0,0,0,0,0,0,0,0,0,0,0,0,0,0,0,0,0,0,0,0,0,0,0,0,0],"sum_hessian":[5.236E3,3.01E2,4.935E3,3E1,2.71E2,1.458E3,3.477E3,1.23E2,1.48E2,1.043E3,4.15E2,1.72E3,1.757E3,5.8E1,6.5E1,9.6E1,5.2E1,1.6E2,8.83E2,3.64E2,5.1E1,1.264E3,4.56E2,1.126E3,6.31E2,5E1,4.6E1,5E1,1.1E2,2.06E2,6.77E2,1.77E2,1.87E2,4.81E2,7.83E2,3.88E2,6.8E1,5.32E2,5.94E2,5.93E2,3.8E1,3.9E1,7.1E1,5.9E1,1.47E2,4.72E2,2.05E2,4.2E1,1.35E2,8.3E1,1.04E2,4.5E2,3.1E1,4.6E1,7.37E2,4.2E1,3.46E2,3.8E1,3E1,3.45E2,1.87E2,3.24E2,2.7E2,5.2E2,7.3E1],"tree_param":{"num_deleted":"0","num_feature":"129","num_nodes":"65","size_leaf_vector":"0"}},{"base_weights":[4.822467E1,7.600098E1,3.7708084E1,7.1438736E1,1.7015042E2,4.6097546E1,2.7892206E1,6.800683E1,1.7545704E1,1.3791682E1,1.9439388E1,3.5946316E1,7.118081E1,2.5066692E1,4.6752216E1,-4.5902014E0,7.161708E1,2.8767572E1,4.7570396E1,4.8965122E1,8.325838E1,2.7114141E1,5.059942E0,5.399043E1,2.244882E0,2.0776854E1,6.673E1,2.5968227E1,7.94532E0,5.811083E1,3.46155E1,4.1404114E1,8.954457E0,1.0204015E2,6.43094E1,1.6001492E1,3.151397E1,2.3230052E0,-5.8064157E-1,6.091835E1,2.6259274E0,4.5843067E0,8.09689E0,2.929641E0,-2.3201118E-1,6.89563E0,3.9300606E0,5.0060916E0,2.1521728E0,5.481797E0,3.008621E0,1.1879237E1,7.184343E0,7.180177E0,4.4596047E0,1.926511E0,-3.0878505E-1,3.845205E0,2.5262053E0,-1.034381E0,6.3886654E-1,8.328757E0,4.7000766E0],"categories":[],"categories_nodes":[],"categories_segments":[],"categories_sizes":[],"default_left":[false,true,false,true,true,true,true,true,false,false,false,true,true,false,false,false,true,true,true,false,true,true,false,true,false,false,false,false,false,true,true,true,false,true,true,true,false,false,true,true,false,false,false,false,false,false,false,false,false,false,false,false,false,false,false,false,false,false,false,false,false,false,false],"id":19,"left_children":[1,3,5,7,9,11,13,15,-1,-1,-1,17,19,21,23,-1,25,27,29,31,33,35,37,39,-1,-1,41,43,-1,45,47,49,-1,51,53,55,57,-1,59,61,-1,-1,-1,-1,-1,-1,-1,-1,-1,-1,-1,-1,-1,-1,-1,-1,-1,-1,-1,-1,-1,-1,-1],"loss_changes":[1.55221E6,6.12354E5,3.14009E5,4.820175E5,2.9095625E4,5.236505E5,9.03605E4,5.58619E5,0E0,0E0,0E0,1.18741E5,1.51463E5,6.1649812E4,3.5109312E4,0E0,8.54433E5,1.2358169E5,7.0523375E4,5.6186562E4,1.2573125E5,6.571194E4,1.675398E4,2.7518438E4,0E0,0E0,3.682355E5,8.4362625E4,0E0,5.5255688E4,4.6762344E4,2.1535562E4,0E0,8.3781E4,2.0505938E4,2.6364055E4,3.922E4,0E0,7.7615366E3,3.384272E4,0E0,0E0,0E0,0E0,0E0,0E0,0E0,0E0,0E0,0E0,0E0,0E0,0E0,0E0,0E0,0E0,0E0,0E0,0E0,0E0,0E0,0E0,0E0],"parents":[2147483647,0,0,1,1,2,2,3,3,4,4,5,5,6,6,7,7,11,11,12,12,13,13,14,14,16,16,17,17,18,18,19,19,20,20,21,21,22,22,23,23,26,26,27,27,29,29,30,30,31,31,33,33,34,34,35,35,36,36,38,38,39,39],"right_children":[2,4,6,8,10,12,14,16,-1,-1,-1,18,20,22,24,-1,26,28,30,32,34,36,38,40,-1,-1,42,44,-1,46,48,50,-1,52,54,56,58,-1,60,62,-1,-1,-1,-1,-1,-1,-1,-1,-1,-1,-1,-1,-1,-1,-1,-1,-1,-1,-1,-1,-1,-1,-1],"split_conditions":[4.9484264E1,4.6153846E-1,9.202359E1,2E-1,3.773585E-1,7.891006E0,6.923077E-1,6.8E-1,1.7545704E1,1.3791682E1,1.9439388E1,6.532421E0,1.8095239E-1,2.4166667E0,1.4388889E0,-4.5902014E0,6.3076925E0,2.7272728E-1,6.8290405E1,1.05412655E1,1.29E0,1.1764706E-1,4.2E-1,9.857142E0,2.244882E0,2.0776854E1,1.8461539E0,6.7E1,7.94532E0,4.285714E0,3.2E1,6.8E-1,8.954457E0,1E0,4.5E-1,2.15E0,1.5192307E0,2.3230052E0,5.882353E-2,3.7037036E-1,2.6259274E0,4.5843067E0,8.09689E0,2.929641E0,-2.3201118E-1,6.89563E0,3.9300606E0,5.0060916E0,2.1521728E0,5.481797E0,3.008621E0,1.1879237E1,7.184343E0,7.180177E0,4.4596047E0,1.926511E0,-3.0878505E-1,3.845205E0,2.5262053E0,-1.034381E0,6.3886654E-1,8.328757E0,4.7000766E0],"split_indices":[105,8,105,25,118,0,1,111,0,0,0,0,118,115,111,0,109,22,105,0,111,118,112,106,0,0,114,108,0,116,108,112,0,110,110,113,111,0,117,121,0,0,0,0,0,0,0,0,0,0,0,0,0,0,0,0,0,0,0,0,0,0,0],"split_type":[0,0,0,0,0,0,0,0,0,0,0,0,0,0,0,0,0,0,0,0,0,0,0,0,0,0,0,0,0,0,0,0,0,0,0,0,0,0,0,0,0,0,0,0,0,0,0,0,0,0,0,0,0,0,0,0,0,0,0,0,0,0,0],"sum_hessian":[5.341E3,1.465E3,3.876E3,1.398E3,6.7E1,2.086E3,1.79E3,1.354E3,4.4E1,3E1,3.7E1,1.487E3,5.99E2,1.56E3,2.3E2,4.1E1,1.313E3,9.23E2,5.64E2,2.13E2,3.86E2,1.412E3,1.48E2,1.75E2,5.5E1,4.5E1,1.268E3,8.76E2,4.7E1,3.08E2,2.56E2,1.81E2,3.2E1,1.92E2,1.94E2,4.05E2,1.007E3,3.8E1,1.1E2,1.38E2,3.7E1,5.16E2,7.52E2,7.86E2,9E1,1.93E2,1.15E2,1.15E2,1.41E2,8E1,1.01E2,1.22E2,7E1,1.38E2,5.6E1,3.49E2,5.6E1,4.72E2,5.35E2,5E1,6E1,5.1E1,8.7E1],"tree_param":{"num_deleted":"0","num_feature":"129","num_nodes":"63","size_leaf_vector":"0"}},{"base_weights":[4.4891018E1,3.4086212E1,6.753204E1,2.5978945E1,4.241972E1,8.314325E1,4.245737E1,2.4188555E1,6.803844E1,5.0327312E1,2.9375698E1,2.4587948E1,7.814342E1,3.400661E1,6.310212E1,1.7110088E1,3.442514E1,4.849404E0,9.225987E0,7.123224E1,4.3086018E1,2.7087147E1,7.5941086E0,1.09031944E2,5.1660637E1,9.284809E0,4.3967236E1,3.7929833E0,7.3712754E0,-1.0810193E0,1.8353983E1,1.4667607E1,4.3042347E1,9.838349E1,5.403465E1,3.738404E1,6.2766468E1,3.2053032E1,6.027966E0,1.1560011E2,2.2552817E0,5.6281864E1,-0E0,-5.5837965E0,3.012805E0,7.41741E1,3.3166462E1,-1.0544341E0,1.9351761E0,-7.8937167E-1,2.815614E0,9.910686E0,3.483402E0,1.1479602E1,5.7729135E0,8.124846E0,4.687444E0,3.9326062E0,3.99992E-1,3.210006E0,7.0426073E0,2.7872357E0,4.684717E0,-1.3724047E0,2.6577566E0,1.3264728E1,7.6946464E0,5.2317877E0,1.0474334E1,-2.967476E0,9.653395E-1,5.336505E0,8.463012E0,3.9402032E0,-0E0],"categories":[],"categories_nodes":[],"categories_segments":[],"categories_sizes":[],"default_left":[true,false,true,true,true,true,true,true,true,true,true,false,true,true,true,true,false,false,false,false,false,true,false,false,true,true,true,false,false,false,true,true,true,true,false,true,false,true,true,false,false,false,false,true,false,false,true,false,false,false,false,false,false,false,false,false,false,false,false,false,false,false,false,false,false,false,false,false,false,false,false,false,false,false,false],"id":20,"left_children":[1,3,5,7,9,11,13,15,17,19,21,-1,23,25,27,29,31,-1,-1,33,35,37,-1,39,41,43,45,-1,-1,-1,47,49,51,53,55,57,59,61,63,65,-1,67,-1,69,-1,71,73,-1,-1,-1,-1,-1,-1,-1,-1,-1,-1,-1,-1,-1,-1,-1,-1,-1,-1,-1,-1,-1,-1,-1,-1,-1,-1,-1,-1],"loss_changes":[1.291637E6,2.3816525E5,6.61755E5,1.311225E5,1.7688775E5,8.349085E5,1.08174E5,1.23486125E5,2.4704938E4,1.5821175E5,6.429475E4,0E0,8.255805E5,1.1200731E5,4.2665812E4,3.6681906E4,1.1735194E5,0E0,0E0,1.20072875E5,8.47835E4,6.4368562E4,0E0,2.57862E5,1.3280812E5,4.4175758E4,1.01129875E5,0E0,0E0,0E0,2.9421781E4,6.8064266E4,2.1796088E5,5.9318E4,2.4741625E4,3.8265625E4,3.533875E4,2.6684E4,5.163674E4,2.73283E5,0E0,8.6400875E4,0E0,3.0033625E4,0E0,9.0521875E3,4.9668156E4,0E0,0E0,0E0,0E0,0E0,0E0,0E0,0E0,0E0,0E0,0E0,0E0,0E0,0E0,0E0,0E0,0E0,0E0,0E0,0E0,0E0,0E0,0E0,0E0,0E0,0E0,0E0,0E0],"parents":[2147483647,0,0,1,1,2,2,3,3,4,4,5,5,6,6,7,7,8,8,9,9,10,10,12,12,13,13,14,14,15,15,16,16,19,19,20,20,21,21,23,23,24,24,25,25,26,26,30,30,31,31,32,32,33,33,34,34,35,35,36,36,37,37,38,38,39,39,41,41,43,43,45,45,46,46],"right_children":[2,4,6,8,10,12,14,16,18,20,22,-1,24,26,28,30,32,-1,-1,34,36,38,-1,40,42,44,46,-1,-1,-1,48,50,52,54,56,58,60,62,64,66,-1,68,-1,70,-1,72,74,-1,-1,-1,-1,-1,-1,-1,-1,-1,-1,-1,-1,-1,-1,-1,-1,-1,-1,-1,-1,-1,-1,-1,-1,-1,-1,-1,-1],"split_conditions":[2.8947368E-1,2.9166666E-1,1.2785715E0,1.25E-1,9E-1,3E0,2.5333333E0,2.1052632E-1,1.375E0,1.315E0,8.3333336E-2,2.4587948E1,9.5E-1,2.857143E-1,1.58E0,4.017325E0,4.5827007E0,4.849404E0,9.225987E0,4E0,8.5714287E-1,1.2222222E0,7.5941086E0,1.8181819E-1,1.9E0,3.6363637E-1,6E-1,3.7929833E0,7.3712754E0,-1.0810193E0,9.3E-1,2.9166666E-1,1.925E1,1E0,3.75E-1,3E-1,1.73E0,4E-1,1.6363636E0,2.56E0,2.2552817E0,6.451613E-2,-0E0,1.1E1,3.012805E0,2.857143E-1,2.064516E0,-1.0544341E0,1.9351761E0,-7.8937167E-1,2.815614E0,9.910686E0,3.483402E0,1.1479602E1,5.7729135E0,8.124846E0,4.687444E0,3.9326062E0,3.99992E-1,3.210006E0,7.0426073E0,2.7872357E0,4.684717E0,-1.3724047E0,2.6577566E0,1.3264728E1,7.6946464E0,5.2317877E0,1.0474334E1,-2.967476E0,9.653395E-1,5.336505E0,8.463012E0,3.9402032E0,-0E0],"split_indices":[118,1,111,73,112,108,116,118,115,111,8,0,110,115,113,0,0,0,0,116,1,115,0,17,110,13,110,0,0,0,111,120,109,122,1,79,113,46,114,113,0,14,0,108,0,116,115,0,0,0,0,0,0,0,0,0,0,0,0,0,0,0,0,0,0,0,0,0,0,0,0,0,0,0,0],"split_type":[0,0,0,0,0,0,0,0,0,0,0,0,0,0,0,0,0,0,0,0,0,0,0,0,0,0,0,0,0,0,0,0,0,0,0,0,0,0,0,0,0,0,0,0,0,0,0,0,0,0,0,0,0,0,0,0,0,0,0,0,0,0,0,0,0,0,0,0,0,0,0,0,0,0,0],"sum_hessian":[5.309E3,3.596E3,1.713E3,1.827E3,1.769E3,1.054E3,6.59E2,1.754E3,7.3E1,1.098E3,6.71E2,3.1E1,1.023E3,4.7E2,1.89E2,1.041E3,7.13E2,4.2E1,3.1E1,2.8E2,8.18E2,6.41E2,3E1,4.71E2,5.52E2,1.37E2,3.33E2,5.8E1,1.31E2,4.2E1,9.99E2,2.19E2,4.94E2,1.07E2,1.73E2,6.37E2,1.81E2,5.16E2,1.25E2,4.37E2,3.4E1,5.07E2,4.5E1,7.8E1,5.9E1,8.6E1,2.47E2,3.1E1,9.68E2,8E1,1.39E2,6.2E1,4.32E2,7.5E1,3.2E1,3.4E1,1.39E2,6E2,3.7E1,3.8E1,1.43E2,4.06E2,1.1E2,6.2E1,6.3E1,3.02E2,1.35E2,4.7E2,3.7E1,3.2E1,4.6E1,3.1E1,5.5E1,2.07E2,4E1],"tree_param":{"num_deleted":"0","num_feature":"129","num_nodes":"75","size_leaf_vector":"0"}},{"base_weights":[3.9060303E1,6.939996E1,3.44718E1,-4.353628E-2,9.617448E1,3.991282E1,2.1852802E1,4.4510315E1,-5.0820637E1,2.5757065E1,8.268958E1,1.9550812E1,4.6077713E1,2.3790085E1,-1.752921E0,7.8971963E0,2.2612815E0,-9.938785E0,5.515775E-1,9.9611E1,5.5734726E1,2.8121094E1,-6.528853E0,4.3235287E1,7.747697E1,2.527125E1,-3.2351503E0,-1.1741595E0,6.863204E-1,1.5356287E2,8.068978E1,2.5793236E1,1.0029361E2,3.954277E0,3.5672005E1,-4.620111E0,4.5105968E0,6.7440056E1,3.649028E1,1.1498524E1,6.459343E1,9.28822E0,2.7646265E1,-0E0,-8.8110065E-1,1.7899569E1,1.27612915E1,5.519662E0,9.794517E0,4.8797784E0,-0E0,8.088561E0,1.2448455E1,-2.6246223E-1,1.881383E0,4.8329997E0,1.973154E0,-2.2971346E0,1.3897382E0,1.3788936E0,7.314679E0,3.8144863E0,-0E0,8.824627E0,5.421283E0,1.7391518E0,4.207662E-2,1.3162717E0,3.0588932E0],"categories":[],"categories_nodes":[],"categories_segments":[],"categories_sizes":[],"default_left":[true,true,true,false,true,true,true,false,true,false,true,false,true,true,true,false,false,false,false,true,true,true,true,true,true,true,false,false,false,true,true,true,true,true,false,false,true,false,true,false,true,true,true,false,false,false,false,false,false,false,false,false,false,false,false,false,false,false,false,false,false,false,false,false,false,false,false,false,false],"id":21,"left_children":[1,3,5,7,9,11,13,15,17,-1,19,21,23,25,27,-1,-1,-1,-1,29,31,33,35,37,39,41,43,-1,-1,45,47,49,51,53,55,-1,57,59,61,-1,63,65,67,-1,-1,-1,-1,-1,-1,-1,-1,-1,-1,-1,-1,-1,-1,-1,-1,-1,-1,-1,-1,-1,-1,-1,-1,-1,-1],"loss_changes":[7.24992E5,1.287798E6,3.09522E5,4.32544E5,1.060035E6,3.958455E5,6.4697062E4,6.910609E4,2.528202E5,0E0,1.9893825E5,1.6780297E5,2.098565E5,5.2739375E4,9.119981E3,0E0,0E0,0E0,0E0,2.70457E5,2.2998844E5,9.978075E4,8.262702E4,